tree
version=v4
num_class=1
num_tree_per_iteration=1
label_index=0
max_feature_idx=41
objective=binary sigmoid:1
feature_names=url_length hostname_length path_length query_length fragment_length num_dots num_hyphens num_underscores num_slashes num_questionmarks num_subdomains domain_length tld_length has_ip_address is_https num_special_chars num_digits has_at_symbol has_double_slash_redirect has_prefix_suffix has_suspicious_keywords is_shortening_service num_params has_port abnormal_port url_entropy hostname_entropy path_entropy domain_entropy random_domain_score has_suspicious_tld domain_age_days alexa_rank google_index dns_record_exists ssl_certificate_valid ssl_certificate_age has_redirect phishing_keywords_count url_similarity_score domain_registration_length whois_privacy
feature_infos=[20:62] [6:46] [0:25] [0:22] none [1:3] [0:2] none [2:4] [0:1] [0:2] [3:23] [0:8] [0:1] [0:1] [5:11] [0:22] none none [0:1] [0:4] [0:1] [0:2] none none [3.4970558484728036:4.9442356777594174] [2.5654483718208256:4.6875] [0:4.2776134368191157] [1.5849625007211561:4.08746284125034] [0:1] none [5:3649] none [0:1] [0:1] [0:1] none [0:1] [0:3] [0:1] [26:3628] none
tree_sizes=341 471 685 785 473 466 677 575 574 471 564 671 569 568 669 573 681 789 578 575 1093 680 680 575 783 572 681 473 575 474 681 686 577 365 683 579 690 577 894 686 897 1316 1004 471 791 683 579 577 792 688 579 472 899 684 471 903 475 473 687 688 684 1006 578 788 1328 585 586 687 906 585 797 368 1353 802 476 697 700 1120 701 478 908 896 687 899 361 1240 590 807 1030 810 701 592 483 921 703 706 704 592 594 816 711 600 707 596 599 491 1158 1153 1045 936 1046 1159 1046 1046 1053 1018 807 812 804 808 803 807 594 593 592 593 592 381 380 381 380 378 380 378

Tree=0
num_leaves=2
num_cat=0
split_feature=35
split_gain=2546.98
threshold=1.0000000180025095e-35
decision_type=2
left_child=-1
right_child=-2
leaf_value=0.20000000000000001 -0.20000000000000001
leaf_weight=317.5 319.25
leaf_count=1270 1277
internal_value=-0.000549666
internal_weight=636.75
internal_count=2547
is_linear=0
shrinkage=0.1


Tree=1
num_leaves=3
num_cat=0
split_feature=35 0
split_gain=2085.29 2.27374e-13
threshold=1.0000000180025095e-35 44.500000000000007
decision_type=2 2
left_child=1 -1
right_child=-2 -3
leaf_value=0.18187308119005771 -0.18187308119005771 0.18187308119005771
leaf_weight=240.33859187364578 316.07866305112839 74.007455170154572
leaf_count=971 1277 299
internal_value=-0.000499847 0.181873
internal_weight=630.425 314.346
internal_count=2547 1270
is_linear=0
shrinkage=0.1


Tree=2
num_leaves=5
num_cat=0
split_feature=35 25 25 25
split_gain=1738.52 1.13687e-13 2.84217e-14 7.10543e-15
threshold=1.0000000180025095e-35 4.0551127259095709 4.3451910262946436 4.4274503255075981
decision_type=2 2 2 2
left_child=-1 -2 -3 -4
right_child=1 2 3 -5
leaf_value=0.16825816740612271 -0.16825816740612271 -0.16825816740612271 -0.16825816740612273 -0.16825816740612271
leaf_weight=306.20059356093407 220.60908906161785 72.089746043086052 7.9563933759927732 7.2330848872661591
leaf_count=1270 915 299 33 30
internal_value=-0.000462429 -0.168258 -0.168258 -0.168258
internal_weight=614.089 307.888 87.2792 15.1895
internal_count=2547 1277 362 63
is_linear=0
shrinkage=0.1


Tree=3
num_leaves=6
num_cat=0
split_feature=35 0 0 1 25
split_gain=1469.29 1.13687e-13 1.13687e-13 1.13687e-13 7.10543e-15
threshold=1.0000000180025095e-35 57.500000000000007 32.500000000000007 12.500000000000002 4.0318525440680633
decision_type=2 2 2 2 2
left_child=1 2 -1 4 -2
right_child=3 -3 -4 -5 -6
leaf_value=0.15768741416156917 -0.15768741416156917 0.15768741416156917 0.15768741416156917 -0.15768741416156917 -0.15768741416156917
leaf_weight=70.295839950442314 9.2799788713455182 7.8879820406436911 216.45550717413425 280.71936085820198 6.2639857381582251
leaf_count=303 40 34 933 1210 27
internal_value=-0.000433377 0.157687 0.157687 -0.157687 -0.157687
internal_weight=590.903 294.639 286.751 296.263 15.544
internal_count=2547 1270 1236 1277 67
is_linear=0
shrinkage=0.1


Tree=4
num_leaves=3
num_cat=0
split_feature=35 0
split_gain=1254.94 1.13687e-13
threshold=1.0000000180025095e-35 35.500000000000007
decision_type=2 2
left_child=-1 -2
right_child=1 -3
leaf_value=0.14927178044610043 -0.14927178044610043 -0.14927178044610043
leaf_weight=280.83197563886642 257.17132887244225 25.208539545536041
leaf_count=1270 1163 114
internal_value=-0.000410248 -0.149272
internal_weight=563.212 282.38
internal_count=2547 1277
is_linear=0
shrinkage=0.1


Tree=5
num_leaves=3
num_cat=0
split_feature=35 0
split_gain=1075.2 1.13687e-13
threshold=1.0000000180025095e-35 58.500000000000007
decision_type=2 2
left_child=1 -1
right_child=-2 -3
leaf_value=0.14243950394247973 -0.14243950394247973 0.14243950394247973
leaf_weight=262.09605790674686 261.25935859978199 6.6935944557189933
leaf_count=1253 1249 32
internal_value=0.00202361 0.14244
internal_weight=530.049 268.79
internal_count=2534 1285
is_linear=0
shrinkage=0.1


Tree=6
num_leaves=5
num_cat=0
split_feature=35 25 25 28
split_gain=932.457 5.68434e-14 5.68434e-14 7.10543e-15
threshold=1.0000000180025095e-35 4.7074880451211785 4.2474673000982142 2.4109640474436818
decision_type=2 2 2 2
left_child=1 -1 -2 -4
right_child=2 -3 3 -5
leaf_value=0.1368052435697113 -0.1368052435697113 0.1368052435697113 -0.1368052435697113 -0.1368052435697113
leaf_weight=236.5755231231451 212.38700330257416 16.12567988038063 11.012659430503843 22.221973493695259
leaf_count=1203 1080 82 56 113
internal_value=0.00194356 0.136805 -0.136805 -0.136805
internal_weight=498.323 252.701 245.622 33.2346
internal_count=2534 1285 1249 169
is_linear=0
shrinkage=0.1


Tree=7
num_leaves=4
num_cat=0
split_feature=35 2 11
split_gain=813.233 5.68434e-14 5.68434e-14
threshold=1.0000000180025095e-35 24.000000000000004 4.5000000000000009
decision_type=2 2 2
left_child=1 -1 -2
right_child=2 -3 -4
leaf_value=0.13209932398403795 -0.13209932398403795 0.13209932398403795 -0.13209932398403795
leaf_weight=231.5903384834528 10.852922931313513 4.7826440036296836 218.89793708920479
leaf_count=1259 59 26 1190
internal_value=0.00187671 0.132099 -0.132099
internal_weight=466.124 236.373 229.751
internal_count=2534 1285 1249
is_linear=0
shrinkage=0.1


Tree=8
num_leaves=4
num_cat=0
split_feature=35 11 1
split_gain=712.598 1.13687e-13 5.68434e-14
threshold=1.0000000180025095e-35 6.5000000000000009 42.500000000000007
decision_type=2 2 2
left_child=2 -2 -1
right_child=1 -3 -4
leaf_value=0.12812716232731389 -0.12812716232731389 -0.12812716232731389 0.12812716232731389
leaf_weight=213.6534588932991 106.56972849369049 107.42639833688736 6.5106908082962027
leaf_count=1247 622 627 38
internal_value=0.00182028 -0.128127 0.128127
internal_weight=434.16 213.996 220.164
internal_count=2534 1249 1285
is_linear=0
shrinkage=0.1


Tree=9
num_leaves=3
num_cat=0
split_feature=35 0
split_gain=626.902 5.68434e-14
threshold=1.0000000180025095e-35 36.500000000000007
decision_type=2 2
left_child=-1 -2
right_child=1 -3
leaf_value=0.12474463502320948 -0.12474463502320948 -0.12474463502320948
leaf_weight=204.33387272059917 184.13900747895241 14.470336511731146
leaf_count=1285 1158 91
internal_value=0.00177222 -0.124745
internal_weight=402.943 198.609
internal_count=2534 1249
is_linear=0
shrinkage=0.1


Tree=10
num_leaves=4
num_cat=0
split_feature=35 0 26
split_gain=554.366 5.68434e-14 5.68434e-14
threshold=1.0000000180025095e-35 47.500000000000007 3.1476056621081452
decision_type=2 2 2
left_child=1 -1 -2
right_child=2 -3 -4
leaf_value=0.12184263134723478 -0.12184263134723478 0.12184263134723478 -0.12184263134723478
leaf_weight=149.33876253664494 93.575815737247467 37.371473580598831 93.1344203799963
leaf_count=1015 636 254 633
internal_value=0 0.121843 -0.121843
internal_weight=373.42 186.71 186.71
internal_count=2538 1269 1269
is_linear=0
shrinkage=0.1


Tree=11
num_leaves=5
num_cat=0
split_feature=35 0 0 26
split_gain=490.774 5.68434e-14 5.68434e-14 7.10543e-15
threshold=1.0000000180025095e-35 44.500000000000007 30.500000000000004 4.3819238623408934
decision_type=2 2 2 2
left_child=1 -1 -2 -3
right_child=2 3 -4 -5
leaf_value=0.11933702300158547 -0.11933702300158547 0.11933702300158547 -0.11933702300158547 0.11933702300158547
leaf_weight=128.31307791173458 126.54792445898056 39.919624239206314 45.758208736777306 4.0734310448169699
leaf_count=945 932 294 337 30
internal_value=0 0.119337 -0.119337 0.119337
internal_weight=344.612 172.306 172.306 43.9931
internal_count=2538 1269 1269 324
is_linear=0
shrinkage=0.1


Tree=12
num_leaves=4
num_cat=0
split_feature=35 25 27
split_gain=435.566 2.84217e-14 2.84217e-14
threshold=1.0000000180025095e-35 4.4063383959479197 4.0726691882477519
decision_type=2 2 2
left_child=2 -2 -1
right_child=1 -3 -4
leaf_value=0.11716177659130814 -0.11716177659130814 -0.11716177659130814 0.11716177659130814
leaf_weight=154.77857539057732 154.77857539057732 3.8757155388593665 3.8757155388593665
leaf_count=1238 1238 31 31
internal_value=0 -0.117162 0.117162
internal_weight=317.309 158.654 158.654
internal_count=2538 1269 1269
is_linear=0
shrinkage=0.1


Tree=13
num_leaves=4
num_cat=0
split_feature=35 0 25
split_gain=387.41 2.84217e-14 2.84217e-14
threshold=1.0000000180025095e-35 46.500000000000007 4.2607324520989991
decision_type=2 2 2
left_child=1 -1 -2
right_child=2 -3 -4
leaf_value=0.11526438995110283 -0.11526438995110283 0.11526438995110283 -0.11526438995110283
leaf_weight=111.55994965136051 132.47025947272778 34.237760037183762 13.327450215816496
leaf_count=971 1153 298 116
internal_value=0 0.115264 -0.115264
internal_weight=291.595 145.798 145.798
internal_count=2538 1269 1269
is_linear=0
shrinkage=0.1


Tree=14
num_leaves=5
num_cat=0
split_feature=35 0 0 1
split_gain=345.233 2.84217e-14 2.84217e-14 2.84217e-14
threshold=1.0000000180025095e-35 50.500000000000007 28.500000000000004 39.000000000000007
decision_type=2 2 2 2
left_child=1 3 -2 -1
right_child=2 -3 -4 -5
leaf_value=0.11360256224201973 -0.11360256224201973 0.11360256224201973 -0.11360256224201973 0.11360256224201973
leaf_weight=114.14920433610678 75.467063993215561 16.020940959453583 58.28671283274889 3.58363153040409
leaf_count=1083 716 152 553 34
internal_value=0 0.113603 -0.113603 0.113603
internal_weight=267.508 133.754 133.754 117.733
internal_count=2538 1269 1269 1117
is_linear=0
shrinkage=0.1


Tree=15
num_leaves=4
num_cat=0
split_feature=35 1 1
split_gain=309.734 2.84217e-14 1.77636e-15
threshold=1.0000000180025095e-35 36.000000000000007 39.000000000000007
decision_type=2 2 2
left_child=1 -1 -3
right_child=-2 2 -4
leaf_value=0.11214181150601801 -0.11214181150601801 0.11214181150601805 0.11214181150601799
leaf_weight=114.50731351971626 122.71399281919003 2.1240817010402662 6.9515401124954224
leaf_count=1186 1271 22 72
internal_value=0.000395639 0.112142 0.112142
internal_weight=246.297 123.583 9.07562
internal_count=2551 1280 94
is_linear=0
shrinkage=0.1


Tree=16
num_leaves=5
num_cat=0
split_feature=35 0 1 25
split_gain=276.877 2.84217e-14 2.84217e-14 3.55271e-15
threshold=1.0000000180025095e-35 56.500000000000007 13.500000000000002 4.1431458514775112
decision_type=2 2 2 2
left_child=1 -1 3 -2
right_child=2 -3 -4 -5
leaf_value=0.11085378572722815 -0.11085378572722815 0.11085378572722815 -0.11085378572722815 -0.11085378572722815
leaf_weight=109.4337811768055 13.248641788959501 3.6212954223155966 96.62676078081131 2.3847555220127097
leaf_count=1239 150 41 1094 27
internal_value=0.000391095 0.110854 -0.110854 -0.110854
internal_weight=225.315 113.055 112.26 15.6334
internal_count=2551 1280 1271 177
is_linear=0
shrinkage=0.1


Tree=17
num_leaves=6
num_cat=0
split_feature=35 0 31 31 31
split_gain=247.824 1.42109e-14 1.42109e-14 1.42109e-14 3.55271e-15
threshold=1.0000000180025095e-35 36.500000000000007 2712.5000000000005 1820.5000000000002 3352.0000000000005
decision_type=2 2 2 2 2
left_child=2 3 -1 -2 -4
right_child=1 -3 4 -5 -6
leaf_value=0.10971489632761583 -0.10971489632761583 -0.10971489632761583 0.10971489632761577 -0.10971489632761583 0.10971489632761583
leaf_weight=86.355611681938171 34.300126135349274 7.8284993767738333 12.025220692157747 60.44892817735672 4.9230769276618949
leaf_count=1070 425 97 149 749 61
internal_value=0.000387077 -0.109715 0.109715 -0.109715 0.109715
internal_weight=205.881 102.578 103.304 94.7491 16.9483
internal_count=2551 1271 1280 1174 210
is_linear=0
shrinkage=0.1


Tree=18
num_leaves=4
num_cat=0
split_feature=35 15 25
split_gain=222.072 2.84217e-14 1.42109e-14
threshold=1.0000000180025095e-35 6.5000000000000009 4.395345300969665
decision_type=2 2 2
left_child=1 -1 -2
right_child=2 -3 -4
leaf_value=0.10870541965264652 -0.10870541965264652 0.10870541965264652 -0.10870541965264652
leaf_weight=34.919286802411079 90.834347315132618 59.377521440386772 2.7994364947080603
leaf_count=474 1233 806 38
internal_value=0.000383516 0.108705 -0.108705
internal_weight=187.931 94.2968 93.6338
internal_count=2551 1280 1271
is_linear=0
shrinkage=0.1


Tree=19
num_leaves=4
num_cat=0
split_feature=35 1 31
split_gain=199.198 1.42109e-14 3.55271e-15
threshold=1.0000000180025095e-35 25.500000000000004 692.50000000000011
decision_type=2 2 2
left_child=1 -1 -3
right_child=-2 2 -4
leaf_value=0.10780871339757432 -0.10780871339757432 0.10780871339757409 0.10780871339757432
leaf_weight=67.453612416982651 85.391973488032818 1.6796218231320406 16.863403104245663
leaf_count=1004 1271 25 251
internal_value=0.000380352 0.107809 0.107809
internal_weight=171.389 85.9966 18.543
internal_count=2551 1280 276
is_linear=0
shrinkage=0.1


Tree=20
num_leaves=9
num_cat=0
split_feature=6 5 0 0 1 31 1 0
split_gain=163.518 15.8145 1.42109e-14 1.42109e-14 1.42109e-14 3.55271e-15 1.77636e-15 8.88178e-16
threshold=1.0000000180025095e-35 2.5000000000000004 32.500000000000007 53.500000000000007 16.500000000000004 230.00000000000003 27.500000000000004 40.500000000000007
decision_type=2 2 2 2 2 2 2 2
left_child=1 2 -1 4 -2 -4 -5 -3
right_child=3 7 5 6 -6 -7 -8 -9
leaf_value=-0.10701065593122568 0.10701065593122568 0.10701065593122566 -0.10701065593122568 0.10701065593122568 0.10701065593122568 -0.10701065593122568 0.10701065593122563 0.10701065593122561
leaf_weight=65.078528672456741 4.7752824425697318 2.1427549421787258 1.4693176746368397 4.2855098843574515 63.609210997819901 11.632098257541655 2.1427549421787262 1.4693176746368406
leaf_count=1063 78 35 24 70 1039 190 35 24
internal_value=0.000167335 -0.0975591 -0.107011 0.107011 0.107011 -0.107011 0.107011 0.107011
internal_weight=156.605 81.792 78.1799 74.8128 68.3845 13.1014 6.42826 3.61207
internal_count=2558 1336 1277 1222 1117 214 105 59
is_linear=0
shrinkage=0.1


Tree=21
num_leaves=5
num_cat=0
split_feature=35 0 1 0
split_gain=161.133 1.42109e-14 1.42109e-14 8.88178e-16
threshold=1.0000000180025095e-35 38.500000000000007 39.000000000000007 40.500000000000007
decision_type=2 2 2 2
left_child=2 -2 -1 -3
right_child=1 3 -4 -5
leaf_value=0.10629918365868618 -0.10629918365868618 -0.10629918365868618 0.10629918365868618 -0.1062991836586861
leaf_weight=67.454332634806633 67.064100958406925 2.9546112641692153 3.9580641463398925 1.1706950291991232
leaf_count=1210 1203 53 71 21
internal_value=0.000166222 -0.106299 0.106299 -0.106299
internal_weight=142.602 71.1894 71.4124 4.12531
internal_count=2558 1277 1281 74
is_linear=0
shrinkage=0.1


Tree=22
num_leaves=5
num_cat=0
split_feature=35 0 0 25
split_gain=144.883 2.84217e-14 1.42109e-14 1.42109e-14
threshold=1.0000000180025095e-35 37.500000000000007 58.500000000000007 4.7894215584109228
decision_type=2 2 2 2
left_child=2 -2 3 -1
right_child=1 -3 -4 -5
leaf_value=0.10566394512104493 -0.10566394512104493 -0.10566394512104493 0.10566394512104493 0.10566394512104493
leaf_weight=62.04288712143898 60.774635136127472 4.007676273584365 1.4711723029613484 1.4711723029613484
leaf_count=1223 1198 79 29 29
internal_value=0.000165229 -0.105664 0.105664 0.105664
internal_weight=129.768 64.7823 64.9852 63.5141
internal_count=2558 1277 1281 1252
is_linear=0
shrinkage=0.1


Tree=23
num_leaves=4
num_cat=0
split_feature=35 0 26
split_gain=130.355 1.42109e-14 7.10543e-15
threshold=1.0000000180025095e-35 56.500000000000007 3.523986065961298
decision_type=2 2 2
left_child=1 2 -1
right_child=-2 -3 -4
leaf_value=0.10509600333111589 -0.10509600333111589 0.10509600333111589 0.10509600333111589
leaf_weight=11.257639214396475 58.918054413050413 1.7993767596781243 46.045589901506901
leaf_count=244 1277 39 998
internal_value=0.000164341 0.105096 0.105096
internal_weight=118.021 59.1026 57.3032
internal_count=2558 1281 1242
is_linear=0
shrinkage=0.1


Tree=24
num_leaves=6
num_cat=0
split_feature=35 1 25 31 31
split_gain=117.351 1.42109e-14 1.42109e-14 1.77636e-15 4.44089e-16
threshold=1.0000000180025095e-35 14.500000000000002 4.0535847722429326 2591.0000000000005 2625.0000000000005
decision_type=2 2 2 2 2
left_child=2 -2 3 -1 -5
right_child=1 -3 -4 4 -6
leaf_value=0.1045876139397805 -0.10458761393978047 -0.10458761393978047 0.10458761393978047 0.10458761393978043 0.10458761393978033
leaf_weight=5.4102393239736539 21.473197937011719 32.0839773863554 45.001448020339012 2.1808716654777527 1.1323756724596026
leaf_count=129 512 765 1073 52 27
internal_value=0.000163546 -0.104588 0.104588 0.104588 0.104588
internal_weight=107.282 53.5572 53.7249 8.72349 3.31325
internal_count=2558 1277 1281 208 79
is_linear=0
shrinkage=0.1


Tree=25
num_leaves=4
num_cat=0
split_feature=6 5 25
split_gain=96.3476 9.47055 7.10543e-15
threshold=1.0000000180025095e-35 2.5000000000000004 4.7189624342395433
decision_type=2 2 2
left_child=1 -1 -2
right_child=2 -3 -4
leaf_value=-0.10413205333539804 0.10413205333539804 0.10413205333539804 0.10413205333539804
leaf_weight=48.509305592626333 44.203294962644577 2.286377325654029 2.5912276357412329
leaf_count=1273 1160 60 68
internal_value=0.000609911 -0.0947578 0.104132
internal_weight=97.5902 50.7957 46.7945
internal_count=2561 1333 1228
is_linear=0
shrinkage=0.1


Tree=26
num_leaves=5
num_cat=0
split_feature=35 0 0 26
split_gain=95.3534 7.10543e-15 7.10543e-15 7.10543e-15
threshold=1.0000000180025095e-35 54.500000000000007 38.500000000000007 3.523986065961298
decision_type=2 2 2 2
left_child=1 3 -2 -1
right_child=2 -3 -4 -5
leaf_value=0.10372341650791615 -0.10372341650791615 0.10372341650791615 -0.10372341650791615 0.10372341650791615
leaf_weight=9.1021428033709508 41.392253965139389 2.9071482717990866 2.6648859158158293 32.566982425749302
leaf_count=263 1196 84 77 941
internal_value=0.000607517 0.103723 -0.103723 0.103723
internal_weight=88.6334 44.5763 44.0571 41.6691
internal_count=2561 1288 1273 1204
is_linear=0
shrinkage=0.1


Tree=27
num_leaves=3
num_cat=0
split_feature=35 1
split_gain=85.9587 7.10543e-15
threshold=1.0000000180025095e-35 16.500000000000004
decision_type=2 2
left_child=-1 -2
right_child=1 -3
leaf_value=0.10335657600081949 -0.10335657600081949 -0.10335657600081949
leaf_weight=40.470140218734741 31.892230063676834 8.1065964102745038
leaf_count=1288 1015 258
internal_value=0.000605368 -0.103357
internal_weight=80.469 39.9988
internal_count=2561 1273
is_linear=0
shrinkage=0.1


Tree=28
num_leaves=4
num_cat=0
split_feature=35 0 27
split_gain=77.518 7.10543e-15 7.10543e-15
threshold=1.0000000180025095e-35 58.500000000000007 3.8563445509961363
decision_type=2 2 2
left_child=1 2 -1
right_child=-2 -3 -4
leaf_value=0.10302697128541219 -0.10302697128541219 0.10302697128541219 0.10302697128541219
leaf_weight=33.336536748334765 36.302319316193461 0.88403134234249492 2.5095083266496649
leaf_count=1169 1273 31 88
internal_value=0.000603438 0.103027 0.103027
internal_weight=73.0324 36.7301 35.846
internal_count=2561 1288 1257
is_linear=0
shrinkage=0.1


Tree=29
num_leaves=3
num_cat=0
split_feature=35 0
split_gain=69.9292 7.10543e-15
threshold=1.0000000180025095e-35 39.500000000000007
decision_type=2 2
left_child=-1 -2
right_child=1 -3
leaf_value=0.10273063016458275 -0.10273063016458275 -0.10273063016458275
leaf_weight=33.325731247663498 32.187274590134621 0.75034643337130447
leaf_count=1288 1244 29
internal_value=0.000601702 -0.102731
internal_weight=66.2634 32.9376
internal_count=2561 1273
is_linear=0
shrinkage=0.1


Tree=30
num_leaves=5
num_cat=0
split_feature=35 0 25 25
split_gain=62.8785 3.55271e-15 3.55271e-15 3.55271e-15
threshold=1.0000000180025095e-35 21.500000000000004 4.4226900281952171 4.395345300969665
decision_type=2 2 2 2
left_child=2 -2 3 -1
right_child=1 -3 -4 -5
leaf_value=0.10246404444141799 -0.10246404444141788 -0.10246404444141802 0.10246404444141802 0.10246404444141782
leaf_weight=15.32563960924745 2.5112456940114525 27.201250087469816 14.034812383353708 0.82143550738692361
leaf_count=653 107 1159 598 35
internal_value=0.00080301 -0.102464 0.102464 0.102464
internal_weight=59.8944 29.7125 30.1819 16.1471
internal_count=2552 1266 1286 688
is_linear=0
shrinkage=0.1


Tree=31
num_leaves=5
num_cat=0
split_feature=35 26 26 31
split_gain=56.7548 3.55271e-15 3.55271e-15 3.55271e-15
threshold=1.0000000180025095e-35 2.8693312611115185 3.1476056621081452 1034.0000000000002
decision_type=2 2 2 2
left_child=3 -2 -3 -1
right_child=1 2 -4 -5
leaf_value=0.10222407114423181 -0.10222407114423163 -0.10222407114423182 -0.10222407114423185 0.10222407114423185
leaf_weight=9.3860119543969649 1.6388274841010595 11.705910600721838 13.600139770656822 17.984535377472639
leaf_count=441 77 550 639 845
internal_value=0.000801129 -0.102224 -0.102224 0.102224
internal_weight=54.3154 26.9449 25.3061 27.3705
internal_count=2552 1266 1189 1286
is_linear=0
shrinkage=0.1


Tree=32
num_leaves=4
num_cat=0
split_feature=35 25 25
split_gain=51.2398 3.55271e-15 1.77636e-15
threshold=1.0000000180025095e-35 4.4740002912812313 4.8236446612250248
decision_type=2 2 2
left_child=1 -1 -3
right_child=-2 2 -4
leaf_value=0.10200795490764672 -0.10200795490764675 0.10200795490764676 0.10200795490764634
leaf_weight=15.784787558019163 24.429756782948971 8.5677819997072184 0.46312335133552629
leaf_count=818 1266 444 24
internal_value=0.000799435 0.102008 0.102008
internal_weight=49.2454 24.8157 9.03091
internal_count=2552 1286 468
is_linear=0
shrinkage=0.1


Tree=33
num_leaves=2
num_cat=0
split_feature=35
split_gain=46.2707
threshold=1.0000000180025095e-35
decision_type=2
left_child=-1
right_child=-2
leaf_value=0.10181321847770577 -0.10181321847770577
leaf_weight=22.494927600026131 22.145084246993065
leaf_count=1286 1266
internal_value=0.000797909
internal_weight=44.64
internal_count=2552
is_linear=0
shrinkage=0.1


Tree=34
num_leaves=5
num_cat=0
split_feature=35 15 19 25
split_gain=41.7916 3.55271e-15 2.22045e-16 2.22045e-16
threshold=1.0000000180025095e-35 9.5000000000000018 1.0000000180025095e-35 4.7998141162571892
decision_type=2 2 2 2
left_child=1 -1 -3 -4
right_child=-2 2 3 -5
leaf_value=0.10163770747741117 -0.10163770747741117 0.10163770747741124 0.1016377074774111 0.10163770747741081
leaf_weight=18.516898870468143 20.07054278254509 0.33292369544505951 1.2207202166318891 0.31707018613815319
leaf_count=1168 1266 21 77 20
internal_value=0.000796534 0.101638 0.101638 0.101638
internal_weight=40.4582 20.3876 1.87071 1.53779
internal_count=2552 1286 118 97
is_linear=0
shrinkage=0.1


Tree=35
num_leaves=4
num_cat=0
split_feature=35 0 25
split_gain=37.6063 3.55271e-15 2.22045e-16
threshold=1.0000000180025095e-35 36.500000000000007 4.3861656229299362
decision_type=2 2 2
left_child=-1 -2 -3
right_child=1 2 -4
leaf_value=0.1014794303756438 -0.10147943037564378 -0.10147943037564383 -0.10147943037564347
leaf_weight=18.345487795770168 16.880147345364097 0.99125971645116695 0.30168773978948593
leaf_count=1277 1175 69 21
internal_value=0.000479053 -0.101479 -0.101479
internal_weight=36.5186 18.1731 1.29295
internal_count=2542 1265 90
is_linear=0
shrinkage=0.1


Tree=36
num_leaves=5
num_cat=0
split_feature=35 16 25 25
split_gain=33.9773 3.55271e-15 1.77636e-15 1.11022e-16
threshold=1.0000000180025095e-35 3.5000000000000004 4.3062758568609905 4.3451910262946436
decision_type=2 2 2 2
left_child=-1 2 -2 -3
right_child=1 3 -4 -5
leaf_value=0.10133666518796239 -0.10133666518796239 -0.10133666518796206 -0.10133666518796203 -0.10133666518796217
leaf_weight=16.621879674494267 15.046901255846022 0.50763767212629396 0.49462132155895311 0.41652321815490723
leaf_count=1277 1156 39 38 32
internal_value=0.000478379 -0.101337 -0.101337 -0.101337
internal_weight=33.0876 16.4657 15.5415 0.924161
internal_count=2542 1265 1194 71
is_linear=0
shrinkage=0.1


Tree=37
num_leaves=4
num_cat=0
split_feature=35 0 0
split_gain=30.7028 1.77636e-15 1.77636e-15
threshold=1.0000000180025095e-35 54.500000000000007 38.500000000000007
decision_type=2 2 2
left_child=1 -1 -2
right_child=2 -3 -4
leaf_value=0.10120785390948046 -0.10120785390948046 0.10120785390948027 -0.10120785390948027
leaf_weight=14.173873635008929 14.055954553186892 0.8843931136652835 0.86080929730087596
leaf_count=1202 1192 75 73
internal_value=0.000477771 0.101208 -0.101208
internal_weight=29.975 15.0583 14.9168
internal_count=2542 1277 1265
is_linear=0
shrinkage=0.1


Tree=38
num_leaves=7
num_cat=0
split_feature=35 0 25 0 1 25
split_gain=27.7475 3.55271e-15 3.55271e-15 2.22045e-16 2.22045e-16 1.11022e-16
threshold=1.0000000180025095e-35 48.500000000000007 4.2523222468218416 37.500000000000007 30.000000000000004 4.3663437341480202
decision_type=2 2 2 2 2 2
left_child=1 -1 -2 -4 -3 -5
right_child=2 4 3 5 -6 -7
leaf_value=0.10109158778569115 -0.10109158778569115 0.10109158778569104 -0.10109158778569097 -0.10109158778569086 0.1010915877856909 -0.10109158778569075
leaf_weight=11.72818444110453 11.920449759811161 1.5488039562478668 0.97200800012797184 0.36316782422363758 0.36316782422363747 0.25635375827550888
leaf_count=1098 1116 145 91 34 34 24
internal_value=0.000477222 0.101092 -0.101092 -0.101092 0.101092 -0.101092
internal_weight=27.1521 13.6402 13.512 1.59153 1.91197 0.619522
internal_count=2542 1277 1265 149 179 58
is_linear=0
shrinkage=0.1


Tree=39
num_leaves=5
num_cat=0
split_feature=35 25 0 16
split_gain=25.0796 3.55271e-15 1.77636e-15 1.77636e-15
threshold=1.0000000180025095e-35 4.4528375636981918 56.500000000000007 12.500000000000002
decision_type=2 2 2 2
left_child=2 -2 3 -1
right_child=1 -3 -4 -5
leaf_value=0.10098663028838506 -0.10098663028838505 -0.10098663028838424 0.10098663028838457 0.10098663028838456
leaf_weight=11.590014988556501 12.015691665932534 0.22251280862838108 0.38697879761457521 0.37730432767421085
leaf_count=1198 1242 23 40 39
internal_value=0.000476727 -0.100987 0.100987 0.100987
internal_weight=24.5925 12.2382 12.3543 11.9673
internal_count=2542 1265 1277 1237
is_linear=0
shrinkage=0.1


Tree=40
num_leaves=7
num_cat=0
split_feature=35 0 25 25 0 0
split_gain=23.1154 3.55271e-15 3.55271e-15 4.44089e-16 2.22045e-16 1.11022e-16
threshold=1.0000000180025095e-35 50.500000000000007 4.1825482995420877 4.2000726199106451 56.500000000000007 54.500000000000007
decision_type=2 2 2 2 2 2
left_child=1 -1 -2 -4 5 -3
right_child=2 4 3 -5 -6 -7
leaf_value=0.10089186280423801 -0.10089186280423801 0.10089186280423773 -0.10089186280423679 -0.10089186280423797 0.10089186280423774 0.10089186280423773
leaf_weight=9.9356846418231708 9.2522777616977674 0.58702898677438564 0.18399416003376368 2.0151741337031126 0.37674994673579931 0.35922669339925051
leaf_count=1134 1056 67 21 230 43 41
internal_value=-0.000856335 0.100892 -0.100892 -0.100892 0.100892 0.100892
internal_weight=22.7101 11.2587 11.4514 2.19917 1.32301 0.946256
internal_count=2592 1285 1307 251 151 108
is_linear=0
shrinkage=0.1


Tree=41
num_leaves=11
num_cat=0
split_feature=6 5 0 0 0 1 26 25 25 26
split_gain=18.988 1.90899 1.77636e-15 1.77636e-15 1.77636e-15 1.77636e-15 1.77636e-15 1.11022e-16 5.55112e-17 5.55112e-17
threshold=1.0000000180025095e-35 2.5000000000000004 40.500000000000007 35.500000000000007 33.500000000000007 40.500000000000007 4.2769210791817684 4.3663437341480202 4.1965710901220623 4.3356795304511335
decision_type=2 2 2 2 2 2 2 2 2 2
left_child=1 2 3 4 -1 6 -2 -5 -3 -8
right_child=5 8 -4 7 -6 -7 9 -9 -10 -11
leaf_value=-0.10080626134333229 0.10080626134333229 0.10080626134333151 -0.10080626134333118 -0.100806261343332 -0.10080626134333182 0.1008062613433317 0.10080626134333118 -0.10080626134333162 0.10080626134333187 0.10080626134333187
leaf_weight=8.9498192220926231 8.9498192220926231 0.23802710697054941 0.16661897487938482 0.67441013641655523 0.42051455564797002 0.33323794975876886 0.16661897487938482 0.15868473798036575 0.25389558076858521 0.25389558076858521
leaf_count=1128 1128 30 21 85 53 42 21 20 32 32
internal_value=-0.000855609 -0.0916755 -0.100806 -0.100806 -0.100806 0.100806 0.100806 -0.100806 0.100806 0.100806
internal_weight=20.5655 10.862 10.37 10.2034 9.37033 9.70357 9.37033 0.833095 0.491923 0.420515
internal_count=2592 1369 1307 1286 1181 1223 1181 105 62 53
is_linear=0
shrinkage=0.1


Tree=42
num_leaves=8
num_cat=0
split_feature=35 0 0 1 20 25 25
split_gain=18.8931 1.77636e-15 1.77636e-15 1.77636e-15 1.77636e-15 1.77636e-15 1.11022e-16
threshold=1.0000000180025095e-35 57.500000000000007 35.500000000000007 40.500000000000007 3.5000000000000004 4.3062758568609905 4.3062758568609905
decision_type=2 2 2 2 2 2 2
left_child=1 3 5 4 -1 -2 -4
right_child=2 -3 6 -5 -6 -7 -8
leaf_value=0.10072895278937583 -0.1007289527893758 0.10072895278937506 -0.10072895278937544 0.10072895278937517 0.10072895278937538 -0.10072895278937513 -0.10072895278937551
leaf_weight=8.2405348299071139 8.2117971321567858 0.25145485531538803 0.53883183281868774 0.30174582637846548 0.43824989069253284 0.2730081286281355 0.36640564631670713
leaf_count=1147 1143 35 75 42 61 38 51
internal_value=-0.000854953 0.100729 -0.100729 0.100729 0.100729 -0.100729 -0.100729
internal_weight=18.622 9.23199 9.39004 8.98053 8.67878 8.48481 0.905237
internal_count=2592 1285 1307 1250 1208 1181 126
is_linear=0
shrinkage=0.1


Tree=43
num_leaves=3
num_cat=0
split_feature=35 0
split_gain=17.0828 1.77636e-15
threshold=1.0000000180025095e-35 58.500000000000007
decision_type=2 2
left_child=1 -1
right_child=-2 -3
leaf_value=0.10065910400425387 -0.10065910400425385 0.10065910400425289
leaf_weight=8.1768071665428561 8.5020580482669175 0.18214049376547414
leaf_count=1257 1307 28
internal_value=-0.00085436 0.100659
internal_weight=16.861 8.35895
internal_count=2592 1285
is_linear=0
shrinkage=0.1


Tree=44
num_leaves=6
num_cat=0
split_feature=35 0 0 0 26
split_gain=15.4469 8.88178e-16 8.88178e-16 8.88178e-16 1.11022e-16
threshold=1.0000000180025095e-35 57.500000000000007 50.500000000000007 40.500000000000007 4.2257401429607873
decision_type=2 2 2 2 2
left_child=1 2 -1 -2 -4
right_child=3 -3 4 -5 -6
leaf_value=0.10059598753279282 -0.10059598753279282 0.10059598753279241 0.10059598753279267 -0.10059598753279211 0.10059598753279218
leaf_weight=6.6786798276007175 7.5738820619881153 0.20613209344446648 0.53005395457148541 0.12367925606667984 0.15312669798731804
leaf_count=1134 1286 35 90 21 26
internal_value=-0.000853824 0.100596 0.100596 -0.100596 0.100596
internal_weight=15.2656 7.56799 7.36186 7.69756 0.683181
internal_count=2592 1285 1250 1307 116
is_linear=0
shrinkage=0.1


Tree=45
num_leaves=5
num_cat=0
split_feature=35 28 0 0
split_gain=13.6081 1.77636e-15 8.88178e-16 8.88178e-16
threshold=1.0000000180025095e-35 3.0648542969901524 40.500000000000007 38.500000000000007
decision_type=2 2 2 2
left_child=1 -1 -2 -3
right_child=2 3 -4 -5
leaf_value=0.1005389528850498 -0.10053895288504987 0.10053895288504984 -0.10053895288504905 0.10053895288504984
leaf_weight=1.0397203126922248 6.6648737993091345 2.6232943274080753 0.10663798078894604 3.0285186544060707
leaf_count=195 1250 492 20 568
internal_value=-0.000597261 0.100539 -0.100539 0.100539
internal_weight=13.463 6.69153 6.77151 5.65181
internal_count=2525 1255 1270 1060
is_linear=0
shrinkage=0.1


Tree=46
num_leaves=4
num_cat=0
split_feature=35 1 25
split_gain=12.3065 8.88178e-16 8.88178e-16
threshold=1.0000000180025095e-35 20.500000000000004 3.9648767225070696
decision_type=2 2 2
left_child=2 -2 -1
right_child=1 -3 -4
leaf_value=0.10048740143222011 -0.10048740143222044 -0.10048740143222019 0.10048740143222044
leaf_weight=0.26064993906766165 5.7970477188937366 0.33305269991978992 5.7970477188937366
leaf_count=54 1201 69 1201
internal_value=-0.000596955 -0.100487 0.100487
internal_weight=12.1878 6.1301 6.0577
internal_count=2525 1270 1255
is_linear=0
shrinkage=0.1


Tree=47
num_leaves=4
num_cat=0
split_feature=35 0 0
split_gain=11.1299 8.88178e-16 8.88178e-16
threshold=1.0000000180025095e-35 53.500000000000007 31.500000000000004
decision_type=2 2 2
left_child=1 -1 -2
right_child=2 -3 -4
leaf_value=0.10044080450178604 -0.10044080450178604 0.10044080450178589 -0.100440804501786
leaf_weight=4.9855294721201062 4.2121388353407383 0.4981160033494233 1.3370482195168731
leaf_count=1141 964 114 306
internal_value=-0.000596678 0.100441 -0.100441
internal_weight=11.0328 5.48365 5.54919
internal_count=2525 1255 1270
is_linear=0
shrinkage=0.1


Tree=48
num_leaves=6
num_cat=0
split_feature=35 2 11 2 11
split_gain=10.0663 8.88178e-16 8.88178e-16 5.55112e-17 2.77556e-17
threshold=1.0000000180025095e-35 16.500000000000004 5.5000000000000009 22.500000000000004 15.500000000000002
decision_type=2 2 2 2 2
left_child=1 -1 -2 4 -3
right_child=2 3 -4 -5 -6
leaf_value=0.10039868185275272 -0.10039868185275261 0.10039868185275203 -0.10039868185275272 0.10039868185275203 0.10039868185275168
leaf_weight=4.5999044645577669 0.67634020932018746 0.12656658887863148 4.3467712868005037 0.14238741248846054 0.094924941658973694
leaf_count=1163 171 32 1099 36 24
internal_value=-0.000596428 0.100399 -0.100399 0.100399 0.100399
internal_weight=9.98689 4.96378 5.02311 0.363879 0.221492
internal_count=2525 1255 1270 92 56
is_linear=0
shrinkage=0.1


Tree=49
num_leaves=5
num_cat=0
split_feature=6 10 0 25
split_gain=8.31791 0.786847 8.88178e-16 2.77556e-17
threshold=1.0000000180025095e-35 1.0000000180025095e-35 36.500000000000007 4.2081211939912988
decision_type=2 2 2 2
left_child=1 3 -3 -1
right_child=-2 2 -4 -5
leaf_value=0.10036059702750449 0.10036059702750517 -0.10036059702750517 -0.10036059702750494 0.10036059702750391
leaf_weight=0.12530375737696875 4.2889686096459627 4.2173664625734091 0.32936987653374661 0.078762361779808998
leaf_count=35 1198 1178 92 22
internal_value=-0.000596202 -0.0917388 -0.100361 0.100361
internal_weight=9.03977 4.7508 4.54674 0.204066
internal_count=2525 1327 1270 57
is_linear=0
shrinkage=0.1


Tree=50
num_leaves=4
num_cat=0
split_feature=35 0 0
split_gain=8.38462 8.88178e-16 8.88178e-16
threshold=1.0000000180025095e-35 58.500000000000007 39.500000000000007
decision_type=2 2 2
left_child=1 -1 -2
right_child=2 -3 -4
leaf_value=0.10032615988516502 -0.10032615988516502 0.10032615988516416 -0.10032615988516408
leaf_weight=4.1121568218804896 4.0279045938514173 0.10045457957312454 0.090733168646693119
leaf_count=1269 1243 31 28
internal_value=0.00113164 0.100326 -0.100326
internal_weight=8.33125 4.21261 4.11864
internal_count=2571 1300 1271
is_linear=0
shrinkage=0.1


Tree=51
num_leaves=3
num_cat=0
split_feature=35 1
split_gain=7.58424 8.88178e-16
threshold=1.0000000180025095e-35 27.500000000000004
decision_type=2 2
left_child=1 -1
right_child=-2 -3
leaf_value=0.10029503105466792 -0.10029503105466793 0.10029503105466782
leaf_weight=3.1236053060274576 3.7277956281322986 0.68924624123610545
leaf_count=1065 1271 235
internal_value=0.00113129 0.100295
internal_weight=7.54065 3.81285
internal_count=2571 1300
is_linear=0
shrinkage=0.1


Tree=52
num_leaves=7
num_cat=0
split_feature=35 2 0 25 25 39
split_gain=6.86048 8.88178e-16 4.44089e-16 2.22045e-16 5.55112e-17 2.77556e-17
threshold=1.0000000180025095e-35 6.5000000000000009 36.500000000000007 4.5014236859416501 4.3755348987694473 1.0000000180025095e-35
decision_type=2 2 2 2 2 2
left_child=1 -1 -2 -3 5 -4
right_child=2 3 4 -5 -6 -7
leaf_value=0.10026687410580022 -0.10026687410580025 0.10026687410580018 -0.10026687410579932 0.1002668741058 -0.10026687410579871 -0.1002668741057991
leaf_weight=2.314777866005898 3.1323828920722012 0.76982291415333726 0.092909662052988895 0.36632952466607094 0.063709482550621033 0.084945976734161377
leaf_count=872 1180 290 35 138 24 32
internal_value=0.00113098 0.100267 -0.100267 0.100267 -0.100267 -0.100267
internal_weight=6.82488 3.45093 3.37395 1.13615 0.241565 0.177856
internal_count=2571 1300 1271 428 91 67
is_linear=0
shrinkage=0.1


Tree=53
num_leaves=5
num_cat=0
split_feature=35 0 25 0
split_gain=6.20596 4.44089e-16 4.44089e-16 5.55112e-17
threshold=1.0000000180025095e-35 30.500000000000004 3.7849197650970261 25.500000000000004
decision_type=2 2 2 2
left_child=1 3 -2 -1
right_child=2 -3 -4 -5
leaf_value=0.10024141443214596 -0.10024141443214635 0.10024141443214643 -0.10024141443214643 0.10024141443214592
leaf_weight=0.26427784468978677 1.0306835942901673 2.6812188606709242 2.0229267748072743 0.17778691370040178
leaf_count=110 429 1116 842 74
internal_value=0.00113069 0.100241 -0.100241 0.100241
internal_weight=6.17689 3.12328 3.05361 0.442065
internal_count=2571 1300 1271 184
is_linear=0
shrinkage=0.1


Tree=54
num_leaves=3
num_cat=0
split_feature=35 0
split_gain=5.61403 4.44089e-16
threshold=1.0000000180025095e-35 28.500000000000004
decision_type=2 2
left_child=-1 -2
right_child=1 -3
leaf_value=0.10021838889070328 -0.10021838889070321 -0.10021838889070322
leaf_weight=2.8266800800338387 1.5611971518956127 1.2024262186605481
leaf_count=1300 718 553
internal_value=0.00113043 -0.100218
internal_weight=5.5903 2.76362
internal_count=2571 1271
is_linear=0
shrinkage=0.1


Tree=55
num_leaves=7
num_cat=0
split_feature=35 0 15 25 25 31
split_gain=5.07929 4.44089e-16 4.44089e-16 4.44089e-16 2.22045e-16 2.77556e-17
threshold=1.0000000180025095e-35 30.500000000000004 6.5000000000000009 4.0960827720837463 3.7900152069176873 2864.0000000000005
decision_type=2 2 2 2 2 2
left_child=1 -1 3 4 -2 -5
right_child=2 -3 -4 5 -6 -7
leaf_value=0.10019755545679916 -0.10019755545679934 0.10019755545679948 -0.10019755545679934 -0.10019755545679863 -0.10019755545679941 -0.1001975554567975
leaf_weight=0.36601804755628142 0.90717376302927799 2.170526378788054 0.51557380892336357 0.10035978723317374 0.95046622026711702 0.049195974133908749
leaf_count=186 461 1103 262 51 483 25
internal_value=0.000272805 0.100198 -0.100198 -0.100198 -0.100198 -0.100198
internal_weight=5.05931 2.53654 2.52277 2.0072 1.85764 0.149556
internal_count=2571 1289 1282 1020 944 76
is_linear=0
shrinkage=0.1


Tree=56
num_leaves=3
num_cat=0
split_feature=35 25
split_gain=4.59502 4.44089e-16
threshold=1.0000000180025095e-35 3.6684012221596825
decision_type=2 2
left_child=-1 -2
right_child=1 -3
leaf_value=0.10017872567631857 -0.10017872567631808 -0.10017872567631854
leaf_weight=2.2955698186997324 0.26179112750105593 2.0213124470319599
leaf_count=1289 147 1135
internal_value=0.000272754 -0.100179
internal_weight=4.57867 2.2831
internal_count=2571 1282
is_linear=0
shrinkage=0.1


Tree=57
num_leaves=3
num_cat=0
split_feature=35 25
split_gain=4.157 4.44089e-16
threshold=1.0000000180025095e-35 4.4122762911225424
decision_type=2 2
left_child=-1 -2
right_child=1 -3
leaf_value=0.10016168494434637 -0.10016168494434635 -0.10016168494434484
leaf_weight=2.077452851459384 2.0097623784095053 0.056408727541565784
leaf_count=1289 1247 35
internal_value=0.000272708 -0.100162
internal_weight=4.14362 2.06617
internal_count=2571 1282
is_linear=0
shrinkage=0.1


Tree=58
num_leaves=5
num_cat=0
split_feature=35 0 0 31
split_gain=3.7608 4.44089e-16 2.22045e-16 2.22045e-16
threshold=1.0000000180025095e-35 57.500000000000007 39.500000000000007 555.00000000000011
decision_type=2 2 2 2
left_child=1 3 -2 -1
right_child=2 -3 -4 -5
leaf_value=0.10014628146015159 -0.10014628146015184 0.10014628146014977 -0.10014628146014926 0.10014628146015184
leaf_weight=0.28586981957778324 1.8275249180151147 0.052506701555103175 0.042297065141610912 1.5416550984373314
leaf_count=196 1253 36 29 1057
internal_value=0.000272666 0.100146 -0.100146 0.100146
internal_weight=3.74985 1.88003 1.86982 1.82752
internal_count=2571 1289 1282 1253
is_linear=0
shrinkage=0.1


Tree=59
num_leaves=5
num_cat=0
split_feature=35 0 25 1
split_gain=3.40242 4.44089e-16 4.44089e-16 2.22045e-16
threshold=1.0000000180025095e-35 39.500000000000007 4.6849554765951824 12.500000000000002
decision_type=2 2 2 2
left_child=2 3 -1 -2
right_child=1 -3 -4 -5
leaf_value=0.1001323445258317 -0.10013234452583078 -0.10013234452582885 0.10013234452583096 -0.1001323445258317
leaf_weight=1.5627584755420683 0.091072917915880569 0.038277023471891991 0.13858922291547071 1.5627584755420683
leaf_count=1184 69 29 105 1184
internal_value=0.000272628 -0.100132 0.100132 -0.100132
internal_weight=3.39346 1.69211 1.70135 1.65383
internal_count=2571 1282 1289 1253
is_linear=0
shrinkage=0.1


Tree=60
num_leaves=5
num_cat=0
split_feature=35 25 0 0
split_gain=3.04712 4.44089e-16 2.22045e-16 2.22045e-16
threshold=1.0000000180025095e-35 4.4764399218066897 35.500000000000007 21.500000000000004
decision_type=2 2 2 2
left_child=1 -1 3 -2
right_child=2 -3 -4 -5
leaf_value=0.10011972568354693 -0.10011972568354628 0.1001197256835468 -0.1001197256835462 -0.10011972568354695
leaf_weight=1.0009367715101687 0.12063796410802741 0.52077378565445553 0.13736005814280372 1.2601292290491981
leaf_count=838 101 436 115 1055
internal_value=0.000118019 0.10012 -0.10012 -0.10012
internal_weight=3.03984 1.52171 1.51813 1.38077
internal_count=2545 1274 1271 1156
is_linear=0
shrinkage=0.1


Tree=61
num_leaves=8
num_cat=0
split_feature=35 0 25 0 0 0 31
split_gain=2.75682 4.44089e-16 4.44089e-16 2.22045e-16 2.77556e-17 2.77556e-17 1.38778e-17
threshold=1.0000000180025095e-35 34.500000000000007 4.5948388312579782 25.500000000000004 36.500000000000007 56.500000000000007 2591.0000000000005
decision_type=2 2 2 2 2 2 2
left_child=2 -2 3 6 -3 -4 -1
right_child=1 4 5 -5 -6 -7 -8
leaf_value=0.10010831744885361 -0.10010831744885636 -0.1001083174488548 0.10010831744885587 0.10010831744885636 -0.10010831744885536 0.10010831744885407 0.10010831744885536
leaf_weight=0.031345714116468915 1.213835756992921 0.068095861701294891 0.19455960486084234 1.0171143787447361 0.091875368962064385 0.042154581053182483 0.091875368962064385
leaf_count=29 1123 63 180 941 85 39 85
internal_value=0.000118006 -0.100108 0.100108 0.100108 -0.100108 0.100108 0.100108
internal_weight=2.75086 1.37381 1.37705 1.14034 0.159971 0.236714 0.123221
internal_count=2545 1271 1274 1055 148 219 114
is_linear=0
shrinkage=0.1


Tree=62
num_leaves=4
num_cat=0
split_feature=35 0 0
split_gain=2.4942 4.44089e-16 4.44089e-16
threshold=1.0000000180025095e-35 55.500000000000007 36.500000000000007
decision_type=2 2 2
left_child=1 -1 -2
right_child=2 -3 -4
leaf_value=0.1000980122963477 -0.1000980122963477 0.10009801229634603 -0.10009801229634643
leaf_weight=1.1825499198166651 1.1600531057920305 0.063577952678315452 0.083140399656258634
leaf_count=1209 1186 65 85
internal_value=0.000117994 0.100098 -0.100098
internal_weight=2.48932 1.24613 1.24319
internal_count=2545 1274 1271
is_linear=0
shrinkage=0.1


Tree=63
num_leaves=6
num_cat=0
split_feature=6 5 0 25 0
split_gain=2.05018 0.206444 2.22045e-16 2.22045e-16 1.38778e-17
threshold=1.0000000180025095e-35 2.5000000000000004 54.500000000000007 4.5704216734589265 57.500000000000007
decision_type=2 2 2 2 2
left_child=1 -1 3 -2 -4
right_child=2 -3 4 -5 -6
leaf_value=-0.10008866750618994 0.10008866750618997 0.10008866750618842 0.10008866750618775 0.10008866750618937 0.10008866750618693
leaf_weight=1.12498760788003 0.85414086672244571 0.053992324217688181 0.04337088338797912 0.14427457127021626 0.031864322489127517
leaf_count=1271 965 61 49 163 36
internal_value=0.000117983 -0.0909214 0.100089 0.100089 0.100089
internal_weight=2.25263 1.17898 1.07365 0.998415 0.0752352
internal_count=2545 1332 1213 1128 85
is_linear=0
shrinkage=0.1


Tree=64
num_leaves=11
num_cat=0
split_feature=6 5 0 0 25 0 25 25 0 25
split_gain=1.85491 0.186782 2.22045e-16 1.11022e-16 1.11022e-16 5.55112e-17 2.77556e-17 2.77556e-17 1.38778e-17 1.38778e-17
threshold=1.0000000180025095e-35 2.5000000000000004 39.500000000000007 30.500000000000004 4.5461769333114281 33.500000000000007 4.8278648877138082 4.769875084744795 38.500000000000007 4.2236224157941233
decision_type=2 2 2 2 2 2 2 2 2 2
left_child=1 2 3 -1 -2 -5 7 -6 9 -7
right_child=4 -3 -4 5 6 8 -8 -9 -10 -11
leaf_value=-0.10008022364074909 0.10008022364074914 0.10008022364074742 -0.10008022364074463 -0.10008022364074853 0.10008022364074874 -0.10008022364074738 0.1000802236407433 0.10008022364074405 -0.10008022364074615 -0.10008022364074548
leaf_weight=0.7424842531909237 0.74008139153011132 0.048858187103178241 0.021625754947308451 0.14176883798791096 0.19543274841271341 0.053663910424802452 0.016820031625684351 0.019222893286496401 0.032038155477494001 0.026431478268932551
leaf_count=927 924 61 27 177 244 67 21 24 40 33
internal_value=0.000117973 -0.0909137 -0.10008 -0.10008 0.10008 -0.10008 0.10008 0.10008 -0.10008 -0.10008
internal_weight=2.03843 1.06687 1.01801 0.996387 0.971557 0.253902 0.231476 0.214656 0.112134 0.0800954
internal_count=2545 1332 1271 1244 1213 317 289 268 140 100
is_linear=0
shrinkage=0.1


Tree=65
num_leaves=4
num_cat=0
split_feature=35 25 25
split_gain=1.87047 2.22045e-16 1.11022e-16
threshold=1.0000000180025095e-35 4.1888372972343833 4.5803152362843216
decision_type=2 2 2
left_child=2 -2 -1
right_child=1 -3 -4
leaf_value=0.10007258434396325 -0.10007258434396325 -0.10007258434396278 0.10007258434396281
leaf_weight=0.76609833032125607 0.76174961699871346 0.1695998195791617 0.1703246051329188
leaf_count=1057 1051 234 235
internal_value=0.000271831 -0.100073 0.100073
internal_weight=1.86777 0.931349 0.936423
internal_count=2577 1285 1292
is_linear=0
shrinkage=0.1


Tree=66
num_leaves=4
num_cat=0
split_feature=35 25 0
split_gain=1.69235 2.22045e-16 1.11022e-16
threshold=1.0000000180025095e-35 4.2081211939912988 57.500000000000007
decision_type=2 2 2
left_child=2 -2 -1
right_child=1 -3 -4
leaf_value=0.10006567548747619 -0.10006567548747616 -0.10006567548747557 0.10006567548747208
leaf_weight=0.82375526148825884 0.70701287570409477 0.13576221268158406 0.023610819596797228
leaf_count=1256 1078 207 36
internal_value=0.000271812 -0.100066 0.100066
internal_weight=1.69014 0.842775 0.847366
internal_count=2577 1285 1292
is_linear=0
shrinkage=0.1


Tree=67
num_leaves=5
num_cat=0
split_feature=35 1 1 3
split_gain=1.5312 1.11022e-16 1.11022e-16 2.77556e-17
threshold=1.0000000180025095e-35 40.500000000000007 15.500000000000002 8.5000000000000018
decision_type=2 2 2 2
left_child=1 -1 -2 -4
right_child=2 -3 3 -5
leaf_value=0.10005942596421287 -0.1000594259642128 0.10005942596420908 -0.1000594259642125 -0.10005942596421058
leaf_weight=0.74125442886725068 0.5252283182926476 0.025519568007439375 0.19584784749895334 0.041543482802808285
leaf_count=1249 885 43 330 70
internal_value=0.000271795 0.100059 -0.100059 -0.100059
internal_weight=1.52939 0.766774 0.76262 0.237391
internal_count=2577 1292 1285 400
is_linear=0
shrinkage=0.1


Tree=68
num_leaves=7
num_cat=0
split_feature=35 0 0 1 16 40
split_gain=1.38541 1.11022e-16 1.11022e-16 1.11022e-16 6.93889e-18 6.93889e-18
threshold=1.0000000180025095e-35 56.500000000000007 36.500000000000007 25.500000000000004 4.5000000000000009 1751.5000000000002
decision_type=2 2 2 2 2 2
left_child=1 3 -2 -1 -4 -6
right_child=2 -3 4 -5 5 -7
leaf_value=0.10005376047475684 -0.10005376047475688 0.1000537604747527 -0.10005376047474893 0.10005376047475632 -0.10005376047475226 -0.10005376047474986
leaf_weight=0.52736368018668145 0.64282517839455977 0.023092299641575664 0.012351695157121867 0.14338706986745819 0.020944178744684905 0.013962785829789937
leaf_count=982 1197 43 23 267 39 26
internal_value=0.00027178 0.100054 -0.100054 0.100054 -0.100054 -0.100054
internal_weight=1.38393 0.693843 0.690084 0.670751 0.0472587 0.034907
internal_count=2577 1292 1285 1249 88 65
is_linear=0
shrinkage=0.1


Tree=69
num_leaves=4
num_cat=0
split_feature=35 0 40
split_gain=1.2535 1.11022e-16 1.11022e-16
threshold=1.0000000180025095e-35 58.500000000000007 331.50000000000006
decision_type=2 2 2
left_child=1 -1 -2
right_child=2 -3 -4
leaf_value=0.10004864327078247 -0.10004864327078121 0.10004864327077621 -0.10004864327078244
leaf_weight=0.61229528160765767 0.06949065497610718 0.015550356358289719 0.55495334253646433
leaf_count=1260 143 32 1142
internal_value=0.000271766 0.100049 -0.100049
internal_weight=1.25229 0.627846 0.624444
internal_count=2577 1292 1285
is_linear=0
shrinkage=0.1


Tree=70
num_leaves=6
num_cat=0
split_feature=6 5 0 0 1
split_gain=1.01534 0.107222 2.22045e-16 1.11022e-16 6.93889e-18
threshold=1.0000000180025095e-35 2.5000000000000004 24.500000000000004 37.500000000000007 15.500000000000002
decision_type=2 2 2 2 2
left_child=1 3 -2 -1 -5
right_child=2 -3 -4 4 -6
leaf_value=-0.10004401409615943 0.10004401409615576 0.10004401409615607 0.10004401409615943 -0.10004401409615499 -0.10004401409615088
leaf_weight=0.52107274706941098 0.025943706394173205 0.028142325580120087 0.51359744183719158 0.021546468022279441 0.011432819766923785
leaf_count=1185 59 64 1168 49 26
internal_value=0.00121574 -0.0903721 0.100044 -0.100044 -0.100044
internal_weight=1.12174 0.582194 0.539541 0.554052 0.0329793
internal_count=2551 1324 1227 1260 75
is_linear=0
shrinkage=0.1


Tree=71
num_leaves=2
num_cat=0
split_feature=35
split_gain=1.01569
threshold=1.0000000180025095e-35
decision_type=2
left_child=-1
right_child=-2
leaf_value=0.10003982724120375 -0.10003982724120375
leaf_weight=0.51368165228632279 0.50134692632127553
leaf_count=1291 1260
internal_value=0.00121569
internal_weight=1.01503
internal_count=2551
is_linear=0
shrinkage=0.1


Tree=72
num_leaves=11
num_cat=0
split_feature=35 0 0 0 25 25 40 40 0 40
split_gain=0.918995 1.11022e-16 1.11022e-16 5.55112e-17 5.55112e-17 5.55112e-17 2.77556e-17 2.77556e-17 1.38778e-17 1.38778e-17
threshold=1.0000000180025095e-35 47.500000000000007 23.500000000000004 40.500000000000007 4.4169598157885028 4.3367014413958591 2807.5000000000005 1042.5000000000002 57.500000000000007 2787.0000000000005
decision_type=2 2 2 2 2 2 2 2 2 2
left_child=1 -1 6 4 5 -4 7 -2 -3 -9
right_child=2 8 3 -5 -6 -7 -8 9 -10 -11
leaf_value=0.10003602788559936 -0.10003602788559628 0.10003602788559836 -0.10003602788559923 -0.10003602788558755 -0.10003602788558755 -0.10003602788558806 -0.10003602788559501 -0.10003602788559857 0.10003602788559192 -0.10003602788559607
leaf_weight=0.37336428070557304 0.029883544164476916 0.078489308769349009 0.25455018944921903 0.0082809821178670973 0.0082809821178670973 0.0086410248186439276 0.021602562046609819 0.094331187603529543 0.012961537227965891 0.028083330660592765
leaf_count=1037 83 218 707 23 23 24 60 262 36 78
internal_value=0.00121565 0.100036 -0.100036 -0.100036 -0.100036 -0.100036 -0.100036 -0.100036 0.100036 -0.100036
internal_weight=0.918469 0.464815 0.453654 0.279753 0.271472 0.263191 0.173901 0.152298 0.0914508 0.122415
internal_count=2551 1291 1260 777 754 731 483 423 254 340
is_linear=0
shrinkage=0.1


Tree=73
num_leaves=6
num_cat=0
split_feature=35 0 0 0 25
split_gain=0.831511 5.55112e-17 5.55112e-17 2.77556e-17 1.38778e-17
threshold=1.0000000180025095e-35 41.500000000000007 32.500000000000007 53.500000000000007 4.6785042169980029
decision_type=2 2 2 2 2
left_child=1 -1 -2 4 -3
right_child=2 3 -4 -5 -6
leaf_value=0.1000326065118506 -0.10003260651185067 0.10003260651184981 -0.10003260651184948 0.10003260651184814 0.10003260651184072
leaf_weight=0.28799897327553481 0.34305760051938705 0.087311905925162137 0.067438673606375232 0.035511185618815944 0.0097737208125181496
leaf_count=884 1053 268 207 109 30
internal_value=0.00121561 0.100033 -0.100033 0.100033 0.100033
internal_weight=0.831092 0.420596 0.410496 0.132597 0.0970856
internal_count=2551 1291 1260 407 298
is_linear=0
shrinkage=0.1


Tree=74
num_leaves=3
num_cat=0
split_feature=35 0
split_gain=0.752358 5.55112e-17
threshold=1.0000000180025095e-35 56.500000000000007
decision_type=2 2
left_child=1 -1
right_child=-2 -3
leaf_value=0.10002948922335211 -0.10002948922335211 0.10002948922334449
leaf_weight=0.36790579184889793 0.37144334753975272 0.01267624122556299
leaf_count=1248 1260 43
internal_value=0.00121557 0.100029
internal_weight=0.752025 0.380582
internal_count=2551 1291
is_linear=0
shrinkage=0.1


Tree=75
num_leaves=5
num_cat=0
split_feature=35 0 0 25
split_gain=0.68399 5.55112e-17 5.55112e-17 5.55112e-17
threshold=1.0000000180025095e-35 57.500000000000007 40.500000000000007 4.1041794491577734
decision_type=2 2 2 2
left_child=1 -1 3 -2
right_child=2 -3 -4 -5
leaf_value=0.1000266871668329 -0.10002668716683283 0.10002668716682309 -0.10002668716681618 -0.10002668716683183
leaf_weight=0.32890252716606483 0.26568281999789178 0.0098697433131746948 0.0058684960240498176 0.073356200300622731
leaf_count=1233 996 37 22 275
internal_value=-0.000897625 0.100027 -0.100027 -0.100027
internal_weight=0.68368 0.338772 0.344908 0.339039
internal_count=2563 1270 1293 1271
is_linear=0
shrinkage=0.1


Tree=76
num_leaves=5
num_cat=0
split_feature=35 0 20 25
split_gain=0.618883 5.55112e-17 5.55112e-17 5.55112e-17
threshold=1.0000000180025095e-35 56.500000000000007 1.0000000180025095e-35 4.4274503255075981
decision_type=2 2 2 2
left_child=1 2 -1 -2
right_child=3 -3 -4 -5
leaf_value=0.10002414557229787 -0.10002414557229858 0.10002414557228906 0.1000241455722984 -0.10002414557228463
leaf_weight=0.096548418514430523 0.30509300250560045 0.010137583944015205 0.19985522632487118 0.006999760342296212
leaf_count=400 1264 42 828 29
internal_value=-0.000897603 0.100024 0.100024 -0.100024
internal_weight=0.618634 0.306541 0.296404 0.312093
internal_count=2563 1270 1228 1293
is_linear=0
shrinkage=0.1


Tree=77
num_leaves=9
num_cat=0
split_feature=6 5 0 0 0 2 1 0
split_gain=0.510659 0.0493161 5.55112e-17 5.55112e-17 2.77556e-17 2.77556e-17 6.93889e-18 1.73472e-18
threshold=1.0000000180025095e-35 2.5000000000000004 21.500000000000004 55.500000000000007 29.500000000000004 22.500000000000004 16.500000000000004 56.500000000000007
decision_type=2 2 2 2 2 2 2 2
left_child=1 2 -1 4 6 -6 -2 -5
right_child=3 -3 -4 7 5 -7 -8 -9
leaf_value=-0.1000218472295616 0.10002184722954849 0.10002184722955831 -0.1000218472295657 0.10002184722954775 0.1000218472295656 0.10002184722955404 0.10002184722956237 0.10002184722955519
leaf_weight=0.02227744460105896 0.0056785643100738517 0.012885972857475281 0.26012192666530609 0.0054601579904556283 0.20901484787464142 0.0082994401454925537 0.026863977313041687 0.0091730654239654541
leaf_count=102 26 59 1191 25 957 38 123 42
internal_value=-0.000897582 -0.0912921 -0.100022 0.100022 0.100022 0.100022 0.100022 0.100022
internal_weight=0.559775 0.295285 0.282399 0.26449 0.249857 0.217314 0.0325425 0.0146332
internal_count=2563 1352 1293 1211 1144 995 149 67
is_linear=0
shrinkage=0.1


Tree=78
num_leaves=5
num_cat=0
split_feature=35 15 40 25
split_gain=0.506675 5.55112e-17 2.77556e-17 1.38778e-17
threshold=1.0000000180025095e-35 6.5000000000000009 2154.5000000000005 4.4023684222419206
decision_type=2 2 2 2
left_child=-1 2 -2 -3
right_child=1 3 -4 -5
leaf_value=0.10001977061229879 -0.10001977061229844 -0.10001977061229705 -0.10001977061229766 -0.10001977061228653
leaf_weight=0.25098516212892719 0.13458338221244048 0.047232640747097321 0.065809495266876183 0.0079050444765016437
leaf_count=1270 681 239 333 40
internal_value=-0.000897563 -0.10002 -0.10002 -0.10002
internal_weight=0.506516 0.255531 0.200393 0.0551377
internal_count=2563 1293 1014 279
is_linear=0
shrinkage=0.1


Tree=79
num_leaves=3
num_cat=0
split_feature=35 31
split_gain=0.45845 5.55112e-17
threshold=1.0000000180025095e-35 2333.5000000000005
decision_type=2 2
left_child=1 -1
right_child=-2 -3
leaf_value=0.10001788649351578 -0.10001788649351609 0.1000178864935154
leaf_weight=0.13715700674219988 0.23121774409082718 0.089947815373307094
leaf_count=767 1293 503
internal_value=-0.000897546 0.100018
internal_weight=0.458323 0.227105
internal_count=2563 1270
is_linear=0
shrinkage=0.1


Tree=80
num_leaves=7
num_cat=0
split_feature=35 0 0 0 25 14
split_gain=0.410478 2.77556e-17 2.77556e-17 2.77556e-17 1.73472e-18 8.67362e-19
threshold=1.0000000180025095e-35 56.500000000000007 50.500000000000007 37.500000000000007 4.3861656229299362 1.0000000180025095e-35
decision_type=2 2 2 2 2 2
left_child=1 2 -1 -2 -5 -3
right_child=3 5 -4 4 -6 -7
leaf_value=0.10001618797330657 -0.10001618797330661 0.10001618797328238 0.10001618797330135 -0.10001618797329628 -0.10001618797327619 0.1000161879732777
leaf_weight=0.18041599963908084 0.19271341306739487 0.0040452017856296152 0.017313463642494753 0.0092230600712355226 0.003236161428503693 0.0033979694999288759
leaf_count=1115 1191 25 107 57 20 21
internal_value=0 0.100016 0.100016 -0.100016 -0.100016 0.100016
internal_weight=0.410345 0.205173 0.197729 0.205173 0.0124592 0.00744317
internal_count=2536 1268 1222 1268 77 46
is_linear=0
shrinkage=0.1


Tree=81
num_leaves=7
num_cat=0
split_feature=6 5 0 1 25 0
split_gain=0.337849 0.0335611 2.77556e-17 2.77556e-17 1.38778e-17 1.73472e-18
threshold=1.0000000180025095e-35 2.5000000000000004 47.500000000000007 20.500000000000004 4.4771255113729405 40.500000000000007
decision_type=2 2 2 2 2 2
left_child=1 3 -2 -1 -4 -3
right_child=2 5 4 -5 -6 -7
leaf_value=-0.1000146401591985 0.10001464015919835 0.1000146401591806 0.10001464015917379 -0.10001464015918984 0.10001464015919588 0.10001464015916937
leaf_weight=0.17481610126560554 0.14158054432482459 0.0054172493692021817 0.003953127918066456 0.010834498738404363 0.03133219905430451 0.003367479337612167
leaf_count=1194 967 37 27 74 214 23
internal_value=0 -0.0909772 0.100015 -0.100015 0.100015 0.100015
internal_weight=0.371301 0.194435 0.176866 0.185651 0.0352853 0.00878473
internal_count=2536 1328 1208 1268 241 60
is_linear=0
shrinkage=0.1


Tree=82
num_leaves=5
num_cat=0
split_feature=35 0 0 0
split_gain=0.336061 2.77556e-17 2.77556e-17 1.73472e-18
threshold=1.0000000180025095e-35 55.500000000000007 20.500000000000004 58.500000000000007
decision_type=2 2 2 2
left_child=1 -1 -2 -3
right_child=2 3 -4 -5
leaf_value=0.10001324689387188 -0.10001324689385155 0.10001324689384815 -0.10001324689387188 0.10001324689384963
leaf_weight=0.15950705396244302 0.0047693139058537773 0.0041069091967074201 0.16321652033366263 0.0043718710803659633
leaf_count=1204 36 31 1232 33
internal_value=0 0.100013 -0.100013 0.100013
internal_weight=0.335972 0.167986 0.167986 0.00847878
internal_count=2536 1268 1268 64
is_linear=0
shrinkage=0.1


Tree=83
num_leaves=7
num_cat=0
split_feature=35 0 0 2 2 1
split_gain=0.304076 2.77556e-17 2.77556e-17 2.77556e-17 1.73472e-18 8.67362e-19
threshold=1.0000000180025095e-35 55.500000000000007 39.500000000000007 16.500000000000004 22.500000000000004 21.500000000000004
decision_type=2 2 2 2 2 2
left_child=1 3 -2 -1 -5 -3
right_child=2 5 -4 4 -6 -7
leaf_value=0.10001198748567118 -0.10001198748567126 0.1000119874856481 -0.10001198748563567 0.1000119874856593 0.10001198748564935 0.10001198748564316
leaf_weight=0.13198253884183941 0.14924456027074484 0.0041956302084145128 0.0027571284226723938 0.0079117598215816543 0.004435380506038201 0.0034763793155434541
leaf_count=1101 1245 35 23 66 37 29
internal_value=0 0.100012 -0.100012 0.100012 0.100012 0.100012
internal_weight=0.304003 0.152002 0.152002 0.14433 0.0123471 0.00767201
internal_count=2536 1268 1268 1204 103 64
is_linear=0
shrinkage=0.1


Tree=84
num_leaves=2
num_cat=0
split_feature=35
split_gain=0.275136
threshold=1.0000000180025095e-35
decision_type=2
left_child=-1
right_child=-2
leaf_value=0.10001084665340759 -0.10001084665340759
leaf_weight=0.13753830594941974 0.13753830594941974
leaf_count=1268 1268
internal_value=0
internal_weight=0.275077
internal_count=2536
is_linear=0
shrinkage=0.1


Tree=85
num_leaves=10
num_cat=0
split_feature=35 0 0 0 40 40 16 25 28
split_gain=0.254048 2.77556e-17 2.77556e-17 1.38778e-17 1.38778e-17 1.38778e-17 6.93889e-18 3.46945e-18 1.73472e-18
threshold=1.0000000180025095e-35 58.500000000000007 35.500000000000007 35.500000000000007 1042.5000000000002 3594.5000000000005 9.5000000000000018 4.3909045226084835 1.9201119644709264
decision_type=2 2 2 2 2 2 2 2 2
left_child=1 3 4 6 -2 -6 -1 8 -4
right_child=2 -3 7 -5 5 -7 -8 -9 -10
leaf_value=0.10000981519485369 -0.10000981519485304 0.10000981519482177 -0.10000981519483146 0.1000098151948543 -0.10000981519485433 -0.10000981519483754 0.10000981519483204 -0.10000981519480936 -0.10000981519483575
leaf_weight=0.049368189989763778 0.037394195598608349 0.0029444248502841211 0.0041221947903977707 0.07115693388186628 0.072138408831960987 0.0054962597205303601 0.0042203422854072406 0.0021592448902083569 0.0050055222454830073
leaf_count=503 381 30 42 725 735 56 43 22 51
internal_value=0.000541011 0.10001 -0.10001 0.10001 -0.10001 -0.10001 0.10001 -0.10001 -0.10001
internal_weight=0.254006 0.12769 0.126316 0.124745 0.115029 0.0776347 0.0535885 0.011287 0.00912772
internal_count=2588 1301 1287 1271 1172 791 546 115 93
is_linear=0
shrinkage=0.1


Tree=86
num_leaves=4
num_cat=0
split_feature=35 0 26
split_gain=0.22987 1.38778e-17 1.73472e-18
threshold=1.0000000180025095e-35 35.500000000000007 3.4025157145232527
decision_type=2 2 2
left_child=-1 -2 -3
right_child=1 2 -4
leaf_value=0.10000888108052841 -0.10000888108052833 -0.10000888108051664 -0.10000888108048595
leaf_weight=0.11553961901518051 0.10408334626117721 0.0079039401171030477 0.0023090162139851609
leaf_count=1301 1172 89 26
internal_value=0.000541006 -0.100009 -0.100009
internal_weight=0.229836 0.114296 0.010213
internal_count=2588 1287 115
is_linear=0
shrinkage=0.1


Tree=87
num_leaves=6
num_cat=0
split_feature=35 0 0 0 40
split_gain=0.207993 1.38778e-17 1.38778e-17 1.38778e-17 1.38778e-17
threshold=1.0000000180025095e-35 57.500000000000007 39.500000000000007 25.500000000000004 250.00000000000003
decision_type=2 2 2 2 2
left_child=1 4 3 -2 -1
right_child=2 -3 -4 -5 -6
leaf_value=0.10000804035968976 -0.10000804035970644 0.10000804035967377 -0.10000804035966687 -0.10000804035970623 0.10000804035970728
leaf_weight=0.0053839677566429591 0.053036100289318711 0.0028928781975992015 0.0024107318313326678 0.047973563443520106 0.096268557797884569
leaf_count=67 660 36 30 597 1198
internal_value=0.000541002 0.100008 -0.100008 -0.100008 0.100008
internal_weight=0.207966 0.104545 0.10342 0.10101 0.101653
internal_count=2588 1301 1287 1257 1265
is_linear=0
shrinkage=0.1


Tree=88
num_leaves=8
num_cat=0
split_feature=35 0 0 26 26 1 0
split_gain=0.188198 1.38778e-17 1.38778e-17 1.38778e-17 1.38778e-17 3.46945e-18 1.73472e-18
threshold=1.0000000180025095e-35 57.500000000000007 32.500000000000007 4.371546622442569 3.715011406798574 20.500000000000004 39.500000000000007
decision_type=2 2 2 2 2 2 2
left_child=1 3 -2 4 -1 6 -4
right_child=2 -3 5 -5 -6 -7 -8
leaf_value=0.10000727483630872 -0.10000727483630992 0.10000727483627302 -0.10000727483630233 0.10000727483627923 0.10000727483630911 -0.10000727483626021 -0.10000727483625822
leaf_weight=0.040500141505617648 0.078455390816088766 0.0026176034007221452 0.011270236864220351 0.0031265818397514513 0.048352951707784086 0.0019632025505416104 0.0018904913449659952
leaf_count=557 1079 36 155 43 665 27 26
internal_value=0.000540998 0.100007 -0.100007 0.100007 0.100007 -0.100007 -0.100007
internal_weight=0.188177 0.0945973 0.0935793 0.0919797 0.0888531 0.0151239 0.0131607
internal_count=2588 1301 1287 1265 1222 208 181
is_linear=0
shrinkage=0.1


Tree=89
num_leaves=6
num_cat=0
split_feature=35 0 0 0 1
split_gain=0.170288 1.38778e-17 1.38778e-17 3.46945e-18 3.46945e-18
threshold=1.0000000180025095e-35 30.500000000000004 31.500000000000004 39.500000000000007 18.500000000000004
decision_type=2 2 2 2 2
left_child=1 4 -2 -4 -1
right_child=2 -3 3 -5 -6
leaf_value=0.10000658009836501 -0.10000658009837481 0.10000658009837499 -0.10000658009837071 -0.10000658009832571 0.10000658009834465
leaf_weight=0.0088161615130957216 0.064936950846458785 0.073621527859359048 0.017763907526386902 0.0019737675029318771 0.0031580280046910056
leaf_count=134 987 1119 270 30 48
internal_value=0.000540994 0.100007 -0.100007 -0.100007 0.100007
internal_weight=0.17027 0.0855957 0.0846746 0.0197377 0.0119742
internal_count=2588 1301 1287 300 182
is_linear=0
shrinkage=0.1


Tree=90
num_leaves=5
num_cat=0
split_feature=35 0 1 16
split_gain=0.151403 1.38778e-17 1.38778e-17 1.73472e-18
threshold=1.0000000180025095e-35 37.500000000000007 30.000000000000004 6.5000000000000009
decision_type=2 2 2 2
left_child=2 -2 -1 -4
right_child=1 -3 3 -5
leaf_value=0.10000595822495834 -0.10000595822495842 -0.10000595822493936 0.10000595822494851 0.10000595822489258
leaf_weight=0.065782467827375513 0.070425936144602019 0.004881594897597096 0.0088106834737118334 0.0014882911273161889
leaf_count=1105 1183 82 148 25
internal_value=0.000511238 -0.100006 0.100006 0.100006
internal_weight=0.151389 0.0753075 0.0760814 0.010299
internal_count=2543 1265 1278 173
is_linear=0
shrinkage=0.1


Tree=91
num_leaves=4
num_cat=0
split_feature=35 0 1
split_gain=0.136994 1.38778e-17 1.38778e-17
threshold=1.0000000180025095e-35 58.500000000000007 12.500000000000002
decision_type=2 2 2
left_child=1 -1 -2
right_child=2 -3 -4
leaf_value=0.10000538266928921 -0.10000538266926079 0.10000538266923915 -0.10000538266928916
leaf_weight=0.066902505786856636 0.003339738614158704 0.0019392030662856987 0.064801702465047128
leaf_count=1242 62 36 1203
internal_value=0.000511235 0.100005 -0.100005
internal_weight=0.136983 0.0688417 0.0681414
internal_count=2543 1278 1265
is_linear=0
shrinkage=0.1


Tree=92
num_leaves=3
num_cat=0
split_feature=35 0
split_gain=0.123957 1.38778e-17
threshold=1.0000000180025095e-35 26.500000000000004
decision_type=2 2
left_child=-1 -2
right_child=1 -3
leaf_value=0.10000487393670768 -0.10000487393670615 -0.10000487393670594
leaf_weight=0.062290858229971491 0.031779060693224892 0.029878165958507452
leaf_count=1278 652 613
internal_value=0.000511232 -0.100005
internal_weight=0.123948 0.0616572
internal_count=2543 1265
is_linear=0
shrinkage=0.1


Tree=93
num_leaves=7
num_cat=0
split_feature=35 0 1 25 31 31
split_gain=0.11216 1.38778e-17 6.93889e-18 3.46945e-18 3.46945e-18 1.73472e-18
threshold=1.0000000180025095e-35 43.500000000000007 14.500000000000002 4.0881540881293779 915.00000000000011 3310.0000000000005
decision_type=2 2 2 2 2 2
left_child=1 -1 3 4 -2 -6
right_child=2 -3 -4 -5 5 -7
leaf_value=0.10000441314347715 -0.10000441314343606 0.10000441314347347 -0.10000441314347669 -0.10000441314345941 -0.10000441314347185 -0.10000441314342144
leaf_weight=0.040133523652912118 0.0022933442087378344 0.016229820554144681 0.034003238171862904 0.0049395106034353367 0.012833907014282886 0.0017200081565533773
leaf_count=910 52 368 771 112 291 39
internal_value=0.00051123 0.100004 -0.100004 -0.100004 -0.100004 -0.100004
internal_weight=0.112153 0.0563633 0.05579 0.0217868 0.0168473 0.0145539
internal_count=2543 1278 1265 494 382 330
is_linear=0
shrinkage=0.1


Tree=94
num_leaves=5
num_cat=0
split_feature=35 0 0 0
split_gain=0.101486 6.93889e-18 1.73472e-18 1.73472e-18
threshold=1.0000000180025095e-35 30.500000000000004 38.500000000000007 34.500000000000007
decision_type=2 2 2 2
left_child=-1 -2 3 -3
right_child=1 2 -4 -5
leaf_value=0.10000398385381232 -0.10000398385381155 -0.10000398385380127 -0.10000398385378038 -0.10000398385378213
leaf_weight=0.05099986914137844 0.036713520821649581 0.0077018581723677926 0.0029530440660892063 0.0031126680696615949
leaf_count=1278 920 193 74 78
internal_value=0.000511228 -0.100004 -0.100004 -0.100004
internal_weight=0.101481 0.0504811 0.0137676 0.0108145
internal_count=2543 1265 345 271
is_linear=0
shrinkage=0.1


Tree=95
num_leaves=5
num_cat=0
split_feature=35 0 0 26
split_gain=0.0920112 6.93889e-18 6.93889e-18 4.33681e-19
threshold=1.0000000180025095e-35 56.500000000000007 37.500000000000007 3.2047131888819176
decision_type=2 2 2 2
left_child=1 -1 -2 -4
right_child=2 -3 3 -5
leaf_value=0.10000360688972135 -0.10000360688972124 0.10000360688965922 -0.10000360688967823 -0.10000360688962467
leaf_weight=0.044485762075055391 0.042752550565637648 0.0015526686438533934 0.0022026229598850469 0.0010110400471603498
leaf_count=1232 1184 43 61 28
internal_value=7.84958e-05 0.100004 -0.100004 -0.100004
internal_weight=0.0920046 0.0460384 0.0459662 0.00321366
internal_count=2548 1275 1273 89
is_linear=0
shrinkage=0.1


Tree=96
num_leaves=5
num_cat=0
split_feature=35 0 0 16
split_gain=0.0832549 6.93889e-18 6.93889e-18 6.93889e-18
threshold=1.0000000180025095e-35 55.500000000000007 44.500000000000007 4.5000000000000009
decision_type=2 2 2 2
left_child=1 2 -1 -2
right_child=3 -3 -4 -5
leaf_value=0.10000326246218481 -0.10000326246218548 0.10000326246214167 0.10000326246217589 -0.10000326246214369
leaf_weight=0.031267577574908501 0.039337683803751133 0.0021563846603385164 0.0082334687031107023 0.0022544021448993581
leaf_count=957 1204 66 252 69
internal_value=7.84955e-05 0.100003 0.100003 -0.100003
internal_weight=0.0832495 0.0416574 0.039501 0.0415921
internal_count=2548 1275 1209 1273
is_linear=0
shrinkage=0.1


Tree=97
num_leaves=4
num_cat=0
split_feature=35 0 40
split_gain=0.0753319 6.93889e-18 8.67362e-19
threshold=1.0000000180025095e-35 49.500000000000007 1462.5000000000002
decision_type=2 2 2
left_child=1 -1 -3
right_child=-2 2 -4
leaf_value=0.10000295951900683 -0.10000295951900723 0.1000029595189719 0.10000295951896705
leaf_weight=0.03272666360680887 0.037634184978742269 0.0026311409765185081 0.0023355071589321597
leaf_count=1107 1273 89 79
internal_value=7.84953e-05 0.100003 0.100003
internal_weight=0.0753275 0.0376933 0.00496665
internal_count=2548 1275 168
is_linear=0
shrinkage=0.1


Tree=98
num_leaves=4
num_cat=0
split_feature=35 0 25
split_gain=0.0681629 6.93889e-18 6.93889e-18
threshold=1.0000000180025095e-35 34.500000000000007 4.3685704158521865
decision_type=2 2 2
left_child=2 -2 -1
right_child=1 -3 -4
leaf_value=0.10000267917181949 -0.10000267917182248 -0.10000267917180189 0.1000026791718204
leaf_weight=0.015729073777038138 0.029879890151278232 0.0041730195734999134 0.018377336198682315
leaf_count=588 1117 156 687
internal_value=7.8495e-05 -0.100003 0.100003
internal_weight=0.0681593 0.0340529 0.0341064
internal_count=2548 1273 1275
is_linear=0
shrinkage=0.1


Tree=99
num_leaves=6
num_cat=0
split_feature=6 5 37 0 25
split_gain=0.0562167 0.00545952 6.93889e-18 3.46945e-18 6.93889e-18
threshold=1.0000000180025095e-35 2.5000000000000004 1.0000000180025095e-35 53.500000000000007 4.4804566525538609
decision_type=2 2 2 2 2
left_child=1 2 -1 4 -2
right_child=3 -3 -4 -5 -6
leaf_value=-0.10000241985088848 0.10000241985088826 0.10000241985082364 -0.10000241985088476 0.1000024198508577 0.10000241985088106
leaf_weight=0.019508886234689271 0.01868593073595548 0.0014280698360380475 0.011303535820843535 0.002783525951599585 0.0079633046789240325
leaf_count=806 772 59 467 115 329
internal_value=7.84948e-05 -0.0911433 -0.100002 0.100002 0.100002
internal_weight=0.0616733 0.0322405 0.0308124 0.0294328 0.0266492
internal_count=2548 1332 1273 1216 1101
is_linear=0
shrinkage=0.1


Tree=100
num_leaves=5
num_cat=0
split_feature=35 0 25 25
split_gain=0.0559159 3.46945e-18 3.46945e-18 4.33681e-19
threshold=1.0000000180025095e-35 54.500000000000007 4.2325103653495981 4.3623897279589565
decision_type=2 2 2 2
left_child=1 -1 -2 -4
right_child=2 -3 3 -5
leaf_value=0.10000219262910799 -0.10000219262910769 0.10000219262905477 -0.10000219262907531 -0.10000219262901862
leaf_weight=0.026128192293981556 0.024222783467848785 0.0017521000700071445 0.0027376563593861638 0.0010731612928793766
leaf_count=1193 1106 80 125 49
internal_value=-0.000274193 0.100002 -0.100002 -0.100002
internal_weight=0.0559139 0.0278803 0.0280336 0.00381082
internal_count=2553 1273 1280 174
is_linear=0
shrinkage=0.1


Tree=101
num_leaves=4
num_cat=0
split_feature=35 0 25
split_gain=0.0505947 3.46945e-18 1.73472e-18
threshold=1.0000000180025095e-35 23.500000000000004 3.9327048654009653
decision_type=2 2 2
left_child=-1 2 -2
right_child=1 -3 -4
leaf_value=0.10000198263868987 -0.10000198263868228 -0.10000198263868748 -0.10000198263859671
leaf_weight=0.025227182333765086 0.0086402604065369815 0.015695151931140572 0.0010304897732567051
leaf_count=1273 436 792 52
internal_value=-0.000274193 -0.100002 -0.100002
internal_weight=0.0505931 0.0253659 0.00967075
internal_count=2553 1280 488
is_linear=0
shrinkage=0.1


Tree=102
num_leaves=5
num_cat=0
split_feature=35 0 2 27
split_gain=0.0457799 3.46945e-18 3.46945e-18 1.73472e-18
threshold=1.0000000180025095e-35 37.500000000000007 5.5000000000000009 3.8249189385156663
decision_type=2 2 2 2
left_child=2 -2 -1 -4
right_child=1 -3 3 -5
leaf_value=0.10000179552627134 -0.10000179552627425 -0.10000179552621176 0.10000179552626653 0.10000179552621323
leaf_weight=0.013215364848292666 0.021463760818733135 0.0014882975337968665 0.0080870143101492431 0.0015241601249726964
leaf_count=737 1197 83 451 85
internal_value=-0.000274192 -0.100002 0.100002 0.100002
internal_weight=0.0457786 0.0229521 0.0228265 0.00961117
internal_count=2553 1280 1273 536
is_linear=0
shrinkage=0.1


Tree=103
num_leaves=4
num_cat=0
split_feature=35 0 0
split_gain=0.0414233 3.46945e-18 3.46945e-18
threshold=1.0000000180025095e-35 54.500000000000007 36.500000000000007
decision_type=2 2 2
left_child=1 -1 -2
right_child=2 -3 -4
leaf_value=0.10000162560591142 -0.1000016256059114 0.10000162560583961 -0.10000162560584964
leaf_weight=0.019356344533662195 0.019275219870905858 0.0012979946041014037 0.0014926937947166144
leaf_count=1193 1188 80 92
internal_value=-0.000274192 0.100002 -0.100002
internal_weight=0.0414223 0.0206543 0.0207679
internal_count=2553 1273 1280
is_linear=0
shrinkage=0.1


Tree=104
num_leaves=4
num_cat=0
split_feature=35 25 25
split_gain=0.0374813 3.46945e-18 3.46945e-18
threshold=1.0000000180025095e-35 4.63350502098658 3.7261438343988798
decision_type=2 2 2
left_child=1 -1 -2
right_child=2 -3 -4
leaf_value=0.10000146823109701 -0.10000146823106969 0.10000146823105611 -0.10000146823109674
leaf_weight=0.016560109310375992 0.0029949133859190616 0.0021287374556777641 0.015796700015926035
leaf_count=1128 204 145 1076
internal_value=-0.000274191 0.100001 -0.100001
internal_weight=0.0374805 0.0186888 0.0187916
internal_count=2553 1273 1280
is_linear=0
shrinkage=0.1


Tree=105
num_leaves=3
num_cat=0
split_feature=6 16
split_gain=0.0309161 0.00141664
threshold=1.0000000180025095e-35 4.5000000000000009
decision_type=2 2
left_child=1 -1
right_child=-2 -3
leaf_value=-0.10000132824036977 0.1000013282403697 -0.00084034729613708151
leaf_weight=0.016259479671134613 0.016073505230451701 0.0015807827458047532
leaf_count=1224 1210 119
internal_value=-0.000587552 -0.0912149
internal_weight=0.0339138 0.0178403
internal_count=2553 1343
is_linear=0
shrinkage=0.1


Tree=106
num_leaves=9
num_cat=0
split_feature=6 40 15 0 1 25 25 25
split_gain=0.0278499 0.00148096 9.67976e-16 1.73472e-18 1.73472e-18 1.73472e-18 1.73472e-18 4.33681e-19
threshold=1.0000000180025095e-35 2985.5000000000005 7.5000000000000009 29.500000000000004 27.500000000000004 3.9663691833815666 4.5214210665892418 4.2523222468218416
decision_type=2 2 2 2 2 2 2 2
left_child=1 2 3 5 6 -1 -2 -5
right_child=4 -3 -4 7 -6 -7 -8 -9
leaf_value=-0.10000119553124312 0.10000119553124394 0.0040261006437938979 -0.10000129631191895 -0.10000119553121677 0.10000119553121929 -0.10000119553120178 0.10000119553122361 -0.10000119553117551
leaf_weight=0.0080652687956899172 0.0086422179792862153 0.0015081007140906868 0.001022233662297368 0.0025842515515250861 0.0027645481713989293 0.0018630650720297135 0.0031371611858048718 0.0012500565644586459
leaf_count=671 719 119 79 215 230 155 261 104
internal_value=-0.000584477 -0.0903723 -0.100001 -0.100001 0.100001 -0.100001 0.100001 -0.100001
internal_weight=0.0308369 0.016293 0.0147849 0.0137626 0.0145439 0.00992833 0.0117794 0.00383431
internal_count=2553 1343 1224 1145 1210 826 980 319
is_linear=0
shrinkage=0.1


Tree=107
num_leaves=9
num_cat=0
split_feature=35 16 0 40 0 2 11 31
split_gain=0.0280454 2.48412e-15 5.91541e-16 4.71845e-16 1.73472e-18 1.73472e-18 1.73472e-18 1.73472e-18
threshold=1.0000000180025095e-35 9.5000000000000018 36.500000000000007 2973.5000000000005 50.500000000000007 6.5000000000000009 19.500000000000004 3135.5000000000005
decision_type=2 2 2 2 2 2 2 2
left_child=1 4 3 5 6 7 -1 -2
right_child=2 -3 -4 -5 -6 -7 -8 -9
leaf_value=0.10000108711676181 -0.10000108711675917 0.10000123375094888 -0.10000117183357773 -0.10000115005655977 0.10000108711668931 -0.10000108711673313 0.10000108711668126 -0.10000108711667358
leaf_weight=0.010343031487536791 0.0081134610827575671 0.0012706745383184179 0.001038616517689662 0.0013198886126701845 0.0012181067577330404 0.0026102287665707999 0.0011093472257925905 0.0010223396002402305
leaf_count=951 746 104 89 115 112 240 102 94
internal_value=-0.000582536 0.100001 -0.100001 -0.100001 0.100001 -0.100001 0.100001 -0.100001
internal_weight=0.0280457 0.0139412 0.0141045 0.0130659 0.0126705 0.011746 0.0114524 0.0091358
internal_count=2553 1269 1284 1195 1165 1080 1053 840
is_linear=0
shrinkage=0.1


Tree=108
num_leaves=8
num_cat=0
split_feature=35 1 40 0 11 25 25
split_gain=0.0253765 1.34615e-15 2.96638e-16 2.48065e-16 3.46945e-18 1.73472e-18 1.73472e-18
threshold=1.0000000180025095e-35 16.500000000000004 2973.5000000000005 34.500000000000007 18.500000000000004 4.2236224157941233 4.63350502098658
decision_type=2 2 2 2 2 2 2
left_child=1 -1 3 5 6 -2 -3
right_child=2 4 -4 -5 -6 -7 -8
leaf_value=0.10000109114934164 -0.1000009888846482 0.10000098888464869 -0.10000104394220342 -0.10000103565931136 0.10000098888458742 -0.10000098888456586 0.10000098888462315
leaf_weight=0.0014548255603585867 0.0090930647311324719 0.0086600616396026453 0.0013297303803483382 0.0012668615463553587 0.0012694863007709509 0.0010726667269409526 0.0012301223368922374
leaf_count=135 924 880 128 123 129 109 125
internal_value=-0.000582535 0.100001 -0.100001 -0.100001 0.100001 -0.100001 0.100001
internal_weight=0.0253768 0.0126145 0.0127623 0.0114326 0.0111597 0.0101657 0.00989018
internal_count=2553 1269 1284 1156 1134 1033 1005
is_linear=0
shrinkage=0.1


Tree=109
num_leaves=7
num_cat=0
split_feature=35 16 40 0 25 3
split_gain=0.0229616 1.43115e-15 2.8276e-16 2.72352e-16 3.46945e-18 1.73472e-18
threshold=1.0000000180025095e-35 9.5000000000000018 2973.5000000000005 34.500000000000007 4.5540586499054836 7.5000000000000009
decision_type=2 2 2 2 2 2
left_child=1 4 3 5 -1 -2
right_child=2 -3 -4 -5 -6 -7
leaf_value=0.10000088860788788 -0.10000088860788124 0.10000101156698585 -0.10000094563359883 -0.10000094003727469 0.10000088860784602 -0.10000088860780439
leaf_weight=0.0084058425418334082 0.0080763763116920018 0.0010403425912954853 0.0012031909327561161 0.0011463047812867453 0.0019678932285387427 0.0011219662792427707
leaf_count=944 907 104 128 123 221 126
internal_value=-0.000582535 0.100001 -0.100001 -0.100001 0.100001 -0.100001
internal_weight=0.0229619 0.0114141 0.0115478 0.0103446 0.0103737 0.00919834
internal_count=2553 1269 1284 1156 1165 1033
is_linear=0
shrinkage=0.1


Tree=110
num_leaves=8
num_cat=0
split_feature=35 16 40 0 31 1 0
split_gain=0.0209312 7.49401e-16 1.92554e-16 1.40513e-16 3.46945e-18 1.73472e-18 4.33681e-19
threshold=1.0000000180025095e-35 8.5000000000000018 2973.5000000000005 33.500000000000007 2452.0000000000005 30.000000000000004 22.500000000000004
decision_type=2 2 2 2 2 2 2
left_child=1 5 3 4 -2 -1 -6
right_child=2 -3 -4 -5 6 -7 -8
leaf_value=0.10000080145353757 -0.10000080145352426 0.10000088674520372 -0.10000084960845873 -0.10000083904691975 -0.10000080145344628 0.1000008014534761 -0.10000080145348578
leaf_weight=0.0079604406682847184 0.0052693605684908107 0.0011564259630176829 0.0011289353378742826 0.0011572373614399121 0.0010313121601939201 0.0014905683565302761 0.0017403392703272402
leaf_count=988 654 132 133 138 128 185 216
internal_value=0.0013387 0.100001 -0.100001 -0.100001 -0.100001 0.100001 -0.100001
internal_weight=0.0209346 0.0106074 0.0103272 0.00919825 0.00804101 0.00945101 0.00277165
internal_count=2574 1305 1269 1136 998 1173 344
is_linear=0
shrinkage=0.1


Tree=111
num_leaves=9
num_cat=0
split_feature=35 16 40 0 0 0 11 25
split_gain=0.0189393 4.92661e-16 1.30104e-16 6.76542e-17 1.73472e-18 8.67362e-19 8.67362e-19 8.67362e-19
threshold=1.0000000180025095e-35 8.5000000000000018 2973.5000000000005 33.500000000000007 42.500000000000007 30.500000000000004 15.500000000000002 3.8971800205523839
decision_type=2 2 2 2 2 2 2 2
left_child=1 4 3 5 6 7 -1 -2
right_child=2 -3 -4 -5 -6 -7 -8 -9
leaf_value=0.10000072980192293 -0.1000007298019126 0.10000080247353059 -0.10000077095302246 -0.10000075717931825 0.10000072980189278 -0.10000072980185495 0.10000072980189201 -0.10000072980188035
leaf_weight=0.0040534592662879732 0.0042502999808675668 0.0010463782932674812 0.0010215036963927568 0.0010471124701325607 0.0022308607058221241 0.0012320766668381111 0.0022673126827612577 0.0017934370416696765
leaf_count=556 583 132 133 138 306 169 311 246
internal_value=0.0013387 0.100001 -0.100001 -0.100001 0.100001 -0.100001 0.100001 -0.100001
internal_weight=0.0189424 0.00959801 0.00934443 0.00832293 0.00855163 0.00727581 0.00632077 0.00604374
internal_count=2574 1305 1269 1136 1173 998 867 829
is_linear=0
shrinkage=0.1


Tree=112
num_leaves=8
num_cat=0
split_feature=35 12 0 26 0 0 26
split_gain=0.017137 2.32453e-16 5.89806e-17 4.85723e-17 8.67362e-19 8.67362e-19 8.67362e-19
threshold=1.0000000180025095e-35 1.0000000180025095e-35 34.500000000000007 2.9483943455364039 47.500000000000007 30.500000000000004 3.0330677526311791
decision_type=2 2 2 2 2 2 2
left_child=1 -1 3 -2 -3 6 -5
right_child=2 4 -4 5 -6 -7 -8
leaf_value=0.10000070622505518 -0.10000068385104098 0.10000066176678601 -0.1000006908521795 -0.10000066178892029 0.10000065909316434 -0.10000066178892485 -0.10000066178899431
leaf_weight=0.001362390555186721 0.0011875878594764799 0.0061414587207764271 0.0010206027982349042 0.0011676028034344199 0.001180795915388444 0.0011478129149509186 0.0039315890189755009
leaf_count=195 174 931 148 177 179 174 596
internal_value=0.0013387 0.100001 -0.100001 -0.100001 0.100001 -0.100001 -0.100001
internal_weight=0.0171398 0.00868465 0.0084552 0.00743459 0.00732225 0.006247 0.00509919
internal_count=2574 1305 1269 1121 1110 947 773
is_linear=0
shrinkage=0.1


Tree=113
num_leaves=8
num_cat=0
split_feature=6 26 26 0 1 40 2
split_gain=0.0140394 0.000443817 5.0307e-17 3.64292e-17 8.67362e-19 8.67362e-19 4.33681e-19
threshold=1.0000000180025095e-35 2.9097614789217747 3.0245210211167444 32.500000000000007 19.500000000000004 1883.0000000000002 9.0000000000000018
decision_type=2 2 2 2 2 2 2
left_child=1 -1 -3 -4 6 -6 -2
right_child=4 2 3 -5 5 -7 -8
leaf_value=-0.032800431058272315 0.10000059445132092 -0.10000062120933369 -0.10000059425396471 -0.10000061477217713 0.10000059447606727 0.10000059443216321 0.10000059745292221
leaf_weight=0.0011463206183179864 0.0023039867573970705 0.0011008349829353392 0.0047691332470094494 0.0010194552100983856 0.0020473249924179981 0.0020413561146597203 0.0010803667801155825
leaf_count=180 386 177 799 166 343 342 181
internal_value=0.0013387 -0.0904143 -0.100001 -0.100001 0.100001 0.100001 0.100001
internal_weight=0.0155088 0.00803574 0.00688942 0.00578859 0.00747303 0.00408868 0.00338435
internal_count=2574 1322 1142 965 1252 685 567
is_linear=0
shrinkage=0.1


Tree=114
num_leaves=8
num_cat=0
split_feature=35 16 26 2 19 0 28
split_gain=0.0141279 5.25621e-16 1.30972e-16 1.21431e-17 6.93889e-18 2.60209e-18 4.33681e-19
threshold=1.0000000180025095e-35 7.5000000000000009 2.9483943455364039 6.5000000000000009 1.0000000180025095e-35 28.500000000000004 2.5108203181716595
decision_type=2 2 2 2 2 2 2
left_child=1 4 -2 5 -1 6 -4
right_child=2 -3 3 -5 -6 -7 -8
leaf_value=0.10000053887328386 -0.10000058564627312 0.10000062202820761 -0.10000054617266285 -0.10000055593400399 0.1000005472932316 -0.10000054198067961 -0.10000054729318858
leaf_weight=0.0011449836615611275 0.0010914314761976129 0.0010569105020294955 0.0014204278854776931 0.0015150772164815862 0.0049579954329601605 0.0013610182163574791 0.0015824538800188748
leaf_count=212 186 175 263 275 918 252 293
internal_value=0.00134096 0.100001 -0.100001 -0.100001 0.100001 -0.100001 -0.100001
internal_weight=0.0141303 0.00715989 0.00697041 0.00587898 0.00610298 0.0043639 0.00300288
internal_count=2574 1305 1269 1083 1130 808 556
is_linear=0
shrinkage=0.1


Tree=115
num_leaves=8
num_cat=0
split_feature=35 12 40 25 0 1 28
split_gain=0.0126696 6.245e-16 7.63278e-17 1.30104e-17 1.73472e-18 8.67362e-19 4.33681e-19
threshold=1.0000000180025095e-35 1.0000000180025095e-35 2787.0000000000005 4.1041794491577734 46.500000000000007 19.500000000000004 2.4109640474436818
decision_type=2 2 2 2 2 2 2
left_child=1 -1 3 6 5 -3 -2
right_child=2 4 -4 -5 -6 -7 -8
leaf_value=0.10000056847647039 -0.1000004857766606 0.10000048388176436 -0.10000051115403884 -0.10000049787023463 0.10000048743084344 0.10000048388175389 -0.10000048388175556
leaf_weight=0.0010720800796661933 0.0013438998821584391 0.002130692185346561 0.0019849832187901484 0.0010334952598896052 0.0010506851863283373 0.0019938587720389478 0.0020622754946089117
leaf_count=194 275 436 389 207 215 408 422
internal_value=-0.00139945 0.1 -0.1 -0.1 0.1 0.1 -0.1
internal_weight=0.012672 0.00624732 0.00642465 0.00443967 0.00517524 0.00412455 0.00340618
internal_count=2546 1253 1293 904 1059 844 697
is_linear=0
shrinkage=0.1


Tree=116
num_leaves=6
num_cat=0
split_feature=35 28 26 25 0
split_gain=0.0114639 4.18068e-16 6.50521e-17 1.30104e-17 8.67362e-19
threshold=1.0000000180025095e-35 3.0648542969901524 2.9978062355746933 4.1431458514775112 38.500000000000007
decision_type=2 2 2 2 2
left_child=1 -1 -2 -4 -3
right_child=2 4 3 -5 -6
leaf_value=0.10000051339406946 -0.10000047142966891 0.10000044221517475 -0.10000044221520005 -0.10000045471965785 0.10000044221521612
leaf_weight=0.0010054335425593308 0.0011689182420013822 0.0020871177111985162 0.0036391903759067645 0.0010051609920083138 0.0025602564955988782
leaf_count=202 248 472 823 222 579
internal_value=-0.00139945 0.1 -0.1 -0.1 0.1
internal_weight=0.0114661 0.00565281 0.00581327 0.00464435 0.00464737
internal_count=2546 1253 1293 1045 1051
is_linear=0
shrinkage=0.1


Tree=117
num_leaves=6
num_cat=0
split_feature=6 1 26 25 0
split_gain=0.00901959 0.000386831 4.85723e-17 8.23994e-18 8.67362e-19
threshold=1.0000000180025095e-35 13.500000000000002 3.0330677526311791 4.0906969122723424 44.500000000000007
decision_type=2 2 2 2 2
left_child=1 -1 -3 -4 -2
right_child=4 2 3 -5 -6
leaf_value=-0.033648221288667027 0.10000039779791126 -0.10000042672266587 -0.10000039891738768 -0.10000040912715269 0.10000039794995924
leaf_weight=0.0010899721214627789 0.003556947490778839 0.0010576814447631477 0.0023966384019331599 0.0010773826775221096 0.0011963185083914141
leaf_count=246 889 248 599 265 299
internal_value=-0.00139945 -0.0871356 -0.1 -0.1 0.1
internal_weight=0.0103749 0.00562167 0.0045317 0.00347402 0.00475327
internal_count=2546 1358 1112 864 1188
is_linear=0
shrinkage=0.1


Tree=118
num_leaves=6
num_cat=0
split_feature=35 11 26 25 40
split_gain=0.00947793 4.44957e-16 5.55112e-17 1.73472e-18 8.67362e-19
threshold=1.0000000180025095e-35 13.500000000000002 3.0330677526311791 4.061029698602165 1947.5000000000002
decision_type=2 2 2 2 2
left_child=1 -1 -2 -4 -3
right_child=2 4 3 -5 -6
leaf_value=0.10000043733226327 -0.1000003872743927 0.10000036426860591 -0.10000036318761699 -0.1000003678345659 0.10000036426859019
leaf_weight=0.001087184808056918 0.0016612935535249562 0.0020527186723029445 0.0021034031422004773 0.0010400221849522495 0.0015350136072811438
leaf_count=262 429 567 581 283 424
internal_value=-0.00136927 0.1 -0.1 -0.1 0.1
internal_weight=0.00947964 0.00467492 0.00480472 0.00314343 0.00358773
internal_count=2546 1253 1293 864 991
is_linear=0
shrinkage=0.1


Tree=119
num_leaves=6
num_cat=0
split_feature=35 19 26 0 0
split_gain=0.00857598 3.38271e-16 5.20417e-17 2.60209e-18 4.33681e-19
threshold=1.0000000180025095e-35 1.0000000180025095e-35 3.0330677526311791 29.500000000000004 40.500000000000007
decision_type=2 2 2 2 2
left_child=1 -1 -2 -4 -3
right_child=2 4 3 -5 -6
leaf_value=0.10000039250470366 -0.1000003515878635 0.10000032622774663 -0.10000032622774269 -0.10000033252900636 0.1000003262277389
leaf_weight=0.0010099322685164225 0.0015032011228868214 0.0020244429988451884 0.0018082403375956346 0.0010360494466112868 0.0011956660753185133
leaf_count=270 429 618 552 312 365
internal_value=-0.00136927 0.1 -0.1 -0.1 0.1
internal_weight=0.00857753 0.00423004 0.00434749 0.00284429 0.00322011
internal_count=2546 1253 1293 864 983
is_linear=0
shrinkage=0.1


Tree=120
num_leaves=6
num_cat=0
split_feature=35 28 26 0 25
split_gain=0.00777561 1.67401e-16 2.77556e-17 8.67362e-19 4.33681e-19
threshold=1.0000000180025095e-35 3.1935289094442187 3.0330677526311791 41.500000000000007 3.971169490914944
decision_type=2 2 2 2 2
left_child=1 -1 -2 -3 -4
right_child=2 3 4 -5 -6
leaf_value=0.10000034462863149 -0.10000031687848487 0.10000029859919078 -0.10000029827506339 0.10000029613651372 -0.10000030049085529
leaf_weight=0.0010409098808850104 0.001364406119364503 0.0018347563820952928 0.0014494279259906762 0.001019638332309114 0.0010664562748843309
leaf_count=317 430 619 489 344 355
internal_value=0.000193098 0.1 -0.1 0.1 -0.1
internal_weight=0.00777559 0.0038953 0.00388029 0.00285439 0.00251588
internal_count=2554 1280 1274 963 844
is_linear=0
shrinkage=0.1


Tree=121
num_leaves=6
num_cat=0
split_feature=35 16 26 0 28
split_gain=0.00703566 1.20563e-16 2.68882e-17 6.07153e-18 8.67362e-19
threshold=1.0000000180025095e-35 4.5000000000000009 3.0330677526311791 28.500000000000004 3.3801819908976696
decision_type=2 2 2 2 2
left_child=1 4 -2 -4 -1
right_child=2 -3 3 -5 -6
leaf_value=0.10000026714213016 -0.10000028659144858 0.10000030580824062 -0.10000026366047597 -0.10000027362787914 0.10000026358306693
leaf_weight=0.0011076650509949104 0.0012345660629762278 0.0010330424190669873 0.0012310370771047019 0.0010454297346313979 0.0013839109308264597
leaf_count=413 430 351 459 385 516
internal_value=0.000193097 0.1 -0.1 -0.1 0.1
internal_weight=0.00703565 0.00352462 0.00351103 0.00227647 0.00249158
internal_count=2554 1280 1274 844 929
is_linear=0
shrinkage=0.1


Tree=122
num_leaves=4
num_cat=0
split_feature=35 26 26
split_gain=0.00636613 6.89553e-17 2.12504e-17
threshold=1.0000000180025095e-35 3.5804119029716848 3.0330677526311791
decision_type=2 2 2
left_child=1 -1 -2
right_child=2 -3 -4
leaf_value=0.10000027486142837 -0.10000026138923644 0.10000024312563585 -0.10000024431402699
leaf_weight=0.0010026853663021029 0.0011170818584105291 0.0021865220066956681 0.0020598328392225085
leaf_count=379 430 901 844
internal_value=0.000193097 0.1 -0.1
internal_weight=0.00636612 0.00318921 0.00317691
internal_count=2554 1280 1274
is_linear=0
shrinkage=0.1


Tree=123
num_leaves=4
num_cat=0
split_feature=35 31 26
split_gain=0.00576031 4.81386e-17 7.37257e-18
threshold=1.0000000180025095e-35 1034.0000000000002 3.0330677526311791
decision_type=2 2 2
left_child=1 -1 -2
right_child=2 -3 -4
leaf_value=0.10000024805832347 -0.10000023561173475 0.10000022139540354 -0.10000022462702991
leaf_weight=0.001058780164385098 0.0010107777013672603 0.0018269346371653228 0.0018638142023519322
leaf_count=448 430 832 844
internal_value=0.000193097 0.1 -0.1
internal_weight=0.00576031 0.00288571 0.00287459
internal_count=2554 1280 1274
is_linear=0
shrinkage=0.1


Tree=124
num_leaves=4
num_cat=0
split_feature=35 11 26
split_gain=0.00521214 2.81893e-17 6.50521e-18
threshold=1.0000000180025095e-35 14.500000000000002 3.0478567170170128
decision_type=2 2 2
left_child=1 -1 -2
right_child=2 -3 -4
leaf_value=0.10000022057941581 -0.1000002121451896 0.10000019933579669 -0.10000020203413554
leaf_weight=0.0010593546337531734 0.0010531338180044258 0.0015517486231146904 0.0015479050230169378
leaf_count=499 499 781 775
internal_value=0.000193097 0.1 -0.1
internal_weight=0.00521214 0.0026111 0.00260104
internal_count=2554 1280 1274
is_linear=0
shrinkage=0.1


Tree=125
num_leaves=4
num_cat=0
split_feature=35 40 26
split_gain=0.00469902 2.42861e-17 7.80626e-18
threshold=1.0000000180025095e-35 2551.0000000000005 3.0980685120588389
decision_type=2 2 2
left_child=1 -1 -2
right_child=2 -3 -4
leaf_value=0.10000017942422917 -0.1000001907021745 0.10000019984909109 -0.10000017932579414
leaf_weight=0.0012998081696196095 0.001055659447843027 0.0010285614519034425 0.0013153565110997079
leaf_count=723 557 535 728
internal_value=-0.000907487 0.1 -0.1
internal_weight=0.00469939 0.00232837 0.00237102
internal_count=2543 1258 1285
is_linear=0
shrinkage=0.1


Tree=126
num_leaves=4
num_cat=0
split_feature=35 31 28
split_gain=0.00425184 1.69136e-17 3.46945e-18
threshold=1.0000000180025095e-35 2069.0000000000005 2.4109640474436818
decision_type=2 2 2
left_child=1 -1 -2
right_child=2 -3 -4
leaf_value=0.10000017916800685 -0.10000017035864926 0.1000001615718021 -0.10000016253026245
leaf_weight=0.0010396710152917876 0.001058531297189802 0.0010671253019154392 0.0010868530314382951
leaf_count=602 620 656 665
internal_value=-0.000907487 0.1 -0.1
internal_weight=0.00425218 0.0021068 0.00214538
internal_count=2543 1258 1285
is_linear=0
shrinkage=0.1


Tree=127
num_leaves=2
num_cat=0
split_feature=35
split_gain=0.00384723
threshold=1.0000000180025095e-35
decision_type=2
left_child=-1
right_child=-2
leaf_value=0.10000015402486379 -0.10000015135405105
leaf_weight=0.0019063084268964303 0.0019412243105989546
leaf_count=1258 1285
internal_value=-0.000907488
internal_weight=0.00384753
internal_count=2543
is_linear=0
shrinkage=0.1


Tree=128
num_leaves=2
num_cat=0
split_feature=35
split_gain=0.00348111
threshold=1.0000000180025095e-35
decision_type=2
left_child=-1
right_child=-2
leaf_value=0.10000014000438236 -0.10000013700076255
leaf_weight=0.0017248994397505157 0.001756492627919215
leaf_count=1258 1285
internal_value=-0.000907487
internal_weight=0.00348139
internal_count=2543
is_linear=0
shrinkage=0.1


Tree=129
num_leaves=2
num_cat=0
split_feature=35
split_gain=0.00314984
threshold=1.0000000180025095e-35
decision_type=2
left_child=-1
right_child=-2
leaf_value=0.10000012737696361 -0.10000012306872595
leaf_weight=0.0015607537461619359 0.0015893404502094199
leaf_count=1258 1285
internal_value=-0.000907486
internal_weight=0.00315009
internal_count=2543
is_linear=0
shrinkage=0.1


Tree=130
num_leaves=2
num_cat=0
split_feature=35
split_gain=0.00285583
threshold=1.0000000180025095e-35
decision_type=2
left_child=-1
right_child=-2
leaf_value=0.10000011225772761 -0.10000011317220342
leaf_weight=0.0014323040205681536 0.0014235431748375049
leaf_count=1277 1271
internal_value=0.000306769
internal_weight=0.00285585
internal_count=2548
is_linear=0
shrinkage=0.1


Tree=131
num_leaves=2
num_cat=0
split_feature=35
split_gain=0.00258406
threshold=1.0000000180025095e-35
decision_type=2
left_child=-1
right_child=-2
leaf_value=0.10000010444074039 -0.10000010068809434
leaf_weight=0.0012960023884716065 0.001288075271645539
leaf_count=1277 1271
internal_value=0.00030677
internal_weight=0.00258408
internal_count=2548
is_linear=0
shrinkage=0.1


Tree=132
num_leaves=2
num_cat=0
split_feature=35
split_gain=0.00233815
threshold=1.0000000180025095e-35
decision_type=2
left_child=-1
right_child=-2
leaf_value=0.10000009366998015 -0.10000009153473798
leaf_weight=0.0011726715691793288 0.0011654988135774147
leaf_count=1277 1271
internal_value=0.000306769
internal_weight=0.00233817
internal_count=2548
is_linear=0
shrinkage=0.1


Tree=133
num_leaves=2
num_cat=0
split_feature=35
split_gain=0.00211565
threshold=1.0000000180025095e-35
decision_type=2
left_child=-1
right_child=-2
leaf_value=0.1000000847927589 -0.10000008409103918
leaf_weight=0.001061077201882199 0.0010545870121063672
leaf_count=1277 1271
internal_value=0.000306769
internal_weight=0.00211566
internal_count=2548
is_linear=0
shrinkage=0.1


end of trees

feature_importances:
url_length=159
ssl_certificate_valid=120
url_entropy=79
hostname_length=36
hostname_entropy=29
domain_registration_length=20
domain_age_days=18
num_hyphens=14
num_digits=13
path_length=11
num_dots=9
domain_length=9
domain_entropy=9
num_special_chars=5
has_prefix_suffix=3
path_entropy=3
query_length=2
tld_length=2
has_suspicious_keywords=2
num_subdomains=1
is_https=1
has_redirect=1
url_similarity_score=1

parameters:
[boosting: gbdt]
[objective: binary]
[metric: binary_logloss]
[tree_learner: serial]
[device_type: cpu]
[data_sample_strategy: bagging]
[data: ]
[valid: ]
[num_iterations: 1000]
[learning_rate: 0.1]
[num_leaves: 31]
[num_threads: 0]
[seed: 42]
[deterministic: 0]
[force_col_wise: 0]
[force_row_wise: 0]
[histogram_pool_size: -1]
[max_depth: -1]
[min_data_in_leaf: 20]
[min_sum_hessian_in_leaf: 0.001]
[bagging_fraction: 0.8]
[pos_bagging_fraction: 1]
[neg_bagging_fraction: 1]
[bagging_freq: 5]
[bagging_seed: 400]
[bagging_by_query: 0]
[feature_fraction: 0.9]
[feature_fraction_bynode: 1]
[feature_fraction_seed: 30056]
[extra_trees: 0]
[extra_seed: 12879]
[early_stopping_round: 0]
[early_stopping_min_delta: 0]
[first_metric_only: 0]
[max_delta_step: 0]
[lambda_l1: 0]
[lambda_l2: 0]
[linear_lambda: 0]
[min_gain_to_split: 0]
[drop_rate: 0.1]
[max_drop: 50]
[skip_drop: 0.5]
[xgboost_dart_mode: 0]
[uniform_drop: 0]
[drop_seed: 17869]
[top_rate: 0.2]
[other_rate: 0.1]
[min_data_per_group: 100]
[max_cat_threshold: 32]
[cat_l2: 10]
[cat_smooth: 10]
[max_cat_to_onehot: 4]
[top_k: 20]
[monotone_constraints: ]
[monotone_constraints_method: basic]
[monotone_penalty: 0]
[feature_contri: ]
[forcedsplits_filename: ]
[refit_decay_rate: 0.9]
[cegb_tradeoff: 1]
[cegb_penalty_split: 0]
[cegb_penalty_feature_lazy: ]
[cegb_penalty_feature_coupled: ]
[path_smooth: 0]
[interaction_constraints: ]
[verbosity: -1]
[saved_feature_importance_type: 0]
[use_quantized_grad: 0]
[num_grad_quant_bins: 4]
[quant_train_renew_leaf: 0]
[stochastic_rounding: 1]
[linear_tree: 0]
[max_bin: 255]
[max_bin_by_feature: ]
[min_data_in_bin: 3]
[bin_construct_sample_cnt: 200000]
[data_random_seed: 175]
[is_enable_sparse: 1]
[enable_bundle: 1]
[use_missing: 1]
[zero_as_missing: 0]
[feature_pre_filter: 1]
[pre_partition: 0]
[two_round: 0]
[header: 0]
[label_column: ]
[weight_column: ]
[group_column: ]
[ignore_column: ]
[categorical_feature: ]
[forcedbins_filename: ]
[precise_float_parser: 0]
[parser_config_file: ]
[objective_seed: 16083]
[num_class: 1]
[is_unbalance: 0]
[scale_pos_weight: 1]
[sigmoid: 1]
[boost_from_average: 1]
[reg_sqrt: 0]
[alpha: 0.9]
[fair_c: 1]
[poisson_max_delta_step: 0.7]
[tweedie_variance_power: 1.5]
[lambdarank_truncation_level: 30]
[lambdarank_norm: 1]
[label_gain: ]
[lambdarank_position_bias_regularization: 0]
[eval_at: ]
[multi_error_top_k: 1]
[auc_mu_weights: ]
[num_machines: 1]
[local_listen_port: 12400]
[time_out: 120]
[machine_list_filename: ]
[machines: ]
[gpu_platform_id: -1]
[gpu_device_id: -1]
[gpu_use_dp: 0]
[num_gpu: 1]

end of parameters

pandas_categorical:[]
